{"learner":{"attributes":{"scikit_learn":"{\"_estimator_type\": \"classifier\"}"},"feature_names":["WSS_Avg","WSS_Max","Pressure_Drop","GFR"],"feature_types":["float","float","float","float"],"gradient_booster":{"model":{"cats":{"enc":[],"feature_segments":[],"sorted_idx":[]},"gbtree_model_param":{"num_parallel_tree":"1","num_trees":"450"},"iteration_indptr":[0,3,6,9,12,15,18,21,24,27,30,33,36,39,42,45,48,51,54,57,60,63,66,69,72,75,78,81,84,87,90,93,96,99,102,105,108,111,114,117,120,123,126,129,132,135,138,141,144,147,150,153,156,159,162,165,168,171,174,177,180,183,186,189,192,195,198,201,204,207,210,213,216,219,222,225,228,231,234,237,240,243,246,249,252,255,258,261,264,267,270,273,276,279,282,285,288,291,294,297,300,303,306,309,312,315,318,321,324,327,330,333,336,339,342,345,348,351,354,357,360,363,366,369,372,375,378,381,384,387,390,393,396,399,402,405,408,411,414,417,420,423,426,429,432,435,438,441,444,447,450],"tree_info":[0,1,2,0,1,2,0,1,2,0,1,2,0,1,2,0,1,2,0,1,2,0,1,2,0,1,2,0,1,2,0,1,2,0,1,2,0,1,2,0,1,2,0,1,2,0,1,2,0,1,2,0,1,2,0,1,2,0,1,2,0,1,2,0,1,2,0,1,2,0,1,2,0,1,2,0,1,2,0,1,2,0,1,2,0,1,2,0,1,2,0,1,2,0,1,2,0,1,2,0,1,2,0,1,2,0,1,2,0,1,2,0,1,2,0,1,2,0,1,2,0,1,2,0,1,2,0,1,2,0,1,2,0,1,2,0,1,2,0,1,2,0,1,2,0,1,2,0,1,2,0,1,2,0,1,2,0,1,2,0,1,2,0,1,2,0,1,2,0,1,2,0,1,2,0,1,2,0,1,2,0,1,2,0,1,2,0,1,2,0,1,2,0,1,2,0,1,2,0,1,2,0,1,2,0,1,2,0,1,2,0,1,2,0,1,2,0,1,2,0,1,2,0,1,2,0,1,2,0,1,2,0,1,2,0,1,2,0,1,2,0,1,2,0,1,2,0,1,2,0,1,2,0,1,2,0,1,2,0,1,2,0,1,2,0,1,2,0,1,2,0,1,2,0,1,2,0,1,2,0,1,2,0,1,2,0,1,2,0,1,2,0,1,2,0,1,2,0,1,2,0,1,2,0,1,2,0,1,2,0,1,2,0,1,2,0,1,2,0,1,2,0,1,2,0,1,2,0,1,2,0,1,2,0,1,2,0,1,2,0,1,2,0,1,2,0,1,2,0,1,2,0,1,2,0,1,2,0,1,2,0,1,2,0,1,2,0,1,2,0,1,2,0,1,2,0,1,2,0,1,2,0,1,2,0,1,2,0,1,2,0,1,2,0,1,2,0,1,2,0,1,2,0,1,2,0,1,2,0,1,2,0,1,2,0,1,2,0,1,2,0,1,2,0,1,2,0,1,2,0,1,2,0,1,2,0,1,2,0,1,2,0,1,2,0,1,2,0,1,2],"trees":[{"base_weights":[-4.1170337E-5,1.9124951E0,-4.1830367E-1,7.620709E0,1.1361857E-1,9.915944E-1,-4.822707E-1,1.8565012E0,1.3490837E0,2.4007823E0,-3.5347837E-1,4.2032033E-1,-4.184797E-2,-1.01311944E-1,-5.0234236E-2,-2.0583996E-1,4.3033385E-1,5.0292856E-1,-3.481553E-2,-4.818763E-2,6.72845E-2,1.1890709E-1,-4.3933954E-2,2.388594E-2,-3.7933625E-2],"categories":[],"categories_nodes":[],"categories_segments":[],"categories_sizes":[],"default_left":[0,0,0,0,0,0,0,0,0,0,0,0,0,0,0,0,0,0,0,0,0,0,0,0,0],"id":0,"left_children":[1,3,5,7,9,11,13,-1,15,17,19,-1,-1,21,-1,23,-1,-1,-1,-1,-1,-1,-1,-1,-1],"loss_changes":[1.5023404E2,3.451974E2,1.4376411E1,5.2822424E2,2.9310179E1,3.352926E1,1.081459E0,0E0,2.9378174E1,3.532428E1,3.3544302E0,0E0,0E0,4.3017297E0,0E0,4.7776955E-1,0E0,0E0,0E0,0E0,0E0,0E0,0E0,0E0,0E0],"parents":[2147483647,0,0,1,1,2,2,3,3,4,4,5,5,6,6,8,8,9,9,10,10,13,13,15,15],"right_children":[2,4,6,8,10,12,14,-1,16,18,20,-1,-1,22,-1,24,-1,-1,-1,-1,-1,-1,-1,-1,-1],"split_conditions":[1.30127E1,2.5470438E1,1.2847696E1,9.393473E0,6.21899E0,1.9516525E1,3.4293208E0,1.8565012E0,1.13009186E2,4.670769E1,1.3841483E2,4.2032033E-1,-4.184797E-2,1.8691336E1,-5.0234236E-2,1.4044971E1,4.3033385E-1,5.0292856E-1,-3.481553E-2,-4.818763E-2,6.72845E-2,1.1890709E-1,-4.3933954E-2,2.388594E-2,-3.7933625E-2],"split_indices":[2,1,1,0,0,2,0,0,3,1,3,0,0,2,0,0,0,0,0,0,0,0,0,0,0],"split_type":[0,0,0,0,0,0,0,0,0,0,0,0,0,0,0,0,0,0,0,0,0,0,0,0,0],"sum_hessian":[1.8580603E2,3.2701862E1,1.5310417E2,7.0606294E0,2.5641233E1,6.0154705E0,1.470887E2,1.8580604E0,5.202569E0,3.6464434E0,2.199479E1,1.230965E0,4.7845054E0,7.664499E0,1.3942421E2,4.0180554E0,1.1845134E0,1.4399967E0,2.2064466E0,2.0020601E1,1.9741892E0,1.0683846E0,6.596114E0,1.0219332E0,2.9961224E0],"tree_param":{"num_deleted":"0","num_feature":"4","num_nodes":"25","size_leaf_vector":"1"}},{"base_weights":[-4.958431E-7,6.0284257E-1,-4.5462778E-1,1.223592E0,-6.3009285E-3,-9.6550964E-2,-6.269288E-1,1.4352314E0,5.277246E-1,6.712797E-1,-3.830698E-1,8.197448E-1,-3.3407283E-1,-4.8308986E-1,-6.644411E-1,1.5309939E0,1.2184838E0,1.0017185E0,-1.0333124E-1,1.1920199E0,1.0326208E-1,-3.466134E-2,-5.897427E-1,1.7225161E0,2.2352181E-1,1.9248387E-1,-5.527066E-1,-6.9879666E-2,-6.0755557E-1,-6.0351026E-1,-6.820133E-2,1.0229438E-1,1.611554E-1,7.4736156E-2,1.6928606E-1,1.5417583E-1,3.5257027E-2,1.0155141E-1,-3.8246285E-2,3.985273E-2,1.4968453E-1,8.967703E-2,-2.8611055E-2,-3.4698136E-2,6.7922525E-2,-3.4788188E-2,-6.441442E-2,1.7618828E-1,9.021623E-3,-3.9805003E-2,9.764796E-2,-4.1062396E-2,7.2793916E-2,-2.8685097E-2,-6.586156E-2,8.689573E-2,-4.0066417E-2,-3.7946995E-2,-6.655189E-2,2.4882851E-2,-6.246352E-2],"categories":[],"categories_nodes":[],"categories_segments":[],"categories_sizes":[],"default_left":[0,0,0,0,0,0,0,0,0,0,0,0,0,0,0,0,0,0,0,0,0,0,0,0,0,0,0,0,0,0,0,0,0,0,0,0,0,0,0,0,0,0,0,0,0,0,0,0,0,0,0,0,0,0,0,0,0,0,0,0,0],"id":1,"left_children":[1,3,5,7,9,11,13,15,17,19,21,23,25,27,29,31,33,35,37,39,41,43,45,47,49,51,53,55,57,59,-1,-1,-1,-1,-1,-1,-1,-1,-1,-1,-1,-1,-1,-1,-1,-1,-1,-1,-1,-1,-1,-1,-1,-1,-1,-1,-1,-1,-1,-1,-1],"loss_changes":[8.605459E2,5.104394E2,1.103764E2,9.770734E1,1.7444603E2,1.2708984E2,6.1986694E0,8.763306E0,4.7215042E1,7.210471E1,3.1599655E1,6.43344E1,5.3459778E1,1.3000324E1,6.116638E-1,1.2728394E1,3.4899185E1,3.102053E1,2.1770247E1,3.0194351E1,3.6679974E1,3.69267E1,3.4016876E0,2.9046326E0,3.4817772E1,4.444886E1,9.038872E0,1.8930214E1,2.3223572E0,4.163704E0,0E0,0E0,0E0,0E0,0E0,0E0,0E0,0E0,0E0,0E0,0E0,0E0,0E0,0E0,0E0,0E0,0E0,0E0,0E0,0E0,0E0,0E0,0E0,0E0,0E0,0E0,0E0,0E0,0E0,0E0,0E0],"parents":[2147483647,0,0,1,1,2,2,3,3,4,4,5,5,6,6,7,7,8,8,9,9,10,10,11,11,12,12,13,13,14,14,15,15,16,16,17,17,18,18,19,19,20,20,21,21,22,22,23,23,24,24,25,25,26,26,27,27,28,28,29,29],"right_children":[2,4,6,8,10,12,14,16,18,20,22,24,26,28,30,32,34,36,38,40,42,44,46,48,50,52,54,56,58,60,-1,-1,-1,-1,-1,-1,-1,-1,-1,-1,-1,-1,-1,-1,-1,-1,-1,-1,-1,-1,-1,-1,-1,-1,-1,-1,-1,-1,-1,-1,-1],"split_conditions":[2.4250902E1,4.493578E1,3.3251316E1,2.3788452E1,1.2215454E1,7.984025E0,7.7753563E0,1.6468178E1,3.002802E1,6.4601776E1,1.2286549E1,3.3913933E1,3.1940182E1,2.9985352E1,4.4386913E1,7.6951075E0,8.099869E1,1.608461E1,8.402027E0,5.158161E1,1.1355679E1,1.04934425E2,5.125875E1,3.2401344E1,8.8371376E1,7.346073E1,1.3712335E1,4.6224598E1,4.2080105E1,2.5094831E1,-6.820133E-2,1.0229438E-1,1.611554E-1,7.4736156E-2,1.6928606E-1,1.5417583E-1,3.5257027E-2,1.0155141E-1,-3.8246285E-2,3.985273E-2,1.4968453E-1,8.967703E-2,-2.8611055E-2,-3.4698136E-2,6.7922525E-2,-3.4788188E-2,-6.441442E-2,1.7618828E-1,9.021623E-3,-3.9805003E-2,9.764796E-2,-4.1062396E-2,7.2793916E-2,-2.8685097E-2,-6.586156E-2,8.689573E-2,-4.0066417E-2,-3.7946995E-2,-6.655189E-2,2.4882851E-2,-6.246352E-2],"split_indices":[2,1,1,0,0,0,0,0,1,1,2,2,2,2,1,2,3,2,2,3,2,3,1,1,3,3,0,1,1,2,0,0,0,0,0,0,0,0,0,0,0,0,0,0,0,0,0,0,0,0,0,0,0,0,0,0,0,0,0,0,0],"split_type":[0,0,0,0,0,0,0,0,0,0,0,0,0,0,0,0,0,0,0,0,0,0,0,0,0,0,0,0,0,0,0,0,0,0,0,0,0,0,0,0,0,0,0,0,0,0,0,0,0,0,0,0,0,0,0,0,0,0,0,0,0],"sum_hessian":[3.1378892E3,1.3489001E3,1.788989E3,6.6758594E2,6.813142E2,5.816862E2,1.2073029E3,5.110837E2,1.5650223E2,2.431864E2,4.3812778E2,1.19239784E2,4.624464E2,2.5260008E2,9.5470276E2,3.5026688E2,1.6081682E2,8.9037605E1,6.7464615E1,1.2630004E2,1.1688637E2,1.6356247E2,2.745653E2,4.66761E1,7.256369E1,1.357137E2,3.267327E2,5.8835423E1,1.9376465E2,2.2161342E2,7.3308936E2,4.981399E1,3.0045288E2,8.1977356E1,7.883946E1,4.785281E1,4.1184795E1,1.2943792E1,5.4520824E1,3.569349E1,9.060655E1,3.8046906E1,7.883946E1,1.1414072E2,4.9421753E1,5.177517E1,2.2279013E2,4.5499393E1,1.1767085E0,4.0008087E1,3.25556E1,6.393449E1,7.177921E1,9.413667E1,2.3259604E2,1.4904973E1,4.3930447E1,4.079256E1,1.5297209E2,5.09907E0,2.1651436E2],"tree_param":{"num_deleted":"0","num_feature":"4","num_nodes":"61","size_leaf_vector":"1"}},{"base_weights":[2.8066247E-6,-6.2559175E-1,4.7178566E-1,-1.2976475E0,3.383426E-2,1.23125836E-1,6.3953763E-1,-1.5747645E0,-5.4942966E-1,-6.2856644E-1,4.0208367E-1,-7.693495E-1,3.5437956E-1,4.9944273E-1,6.7605805E-1,-1.7209641E0,-1.2122602E0,1.898682E-2,-1.0480253E0,-1.1394998E0,-7.163173E-2,6.274722E-2,6.0329527E-1,-1.6494039E0,-1.889178E-1,-1.5847881E-1,5.6724155E-1,9.6758276E-2,6.2062025E-1,6.166895E-1,6.931635E-2,-1.7655906E-1,-1.4387253E-1,-7.874711E-2,-1.6512099E-1,-8.580748E-2,3.1099504E-2,-1.6249423E-1,-5.0836444E-2,-3.598932E-2,-1.4395264E-1,-8.452487E-2,3.0746242E-2,3.6682088E-2,-6.330376E-2,3.67498E-2,6.562558E-2,-1.6877918E-1,-7.2951517E-3,4.162674E-2,-9.2313096E-2,4.286778E-2,-6.802032E-2,3.082259E-2,6.70349E-2,-8.200463E-2,4.188528E-2,3.9817467E-2,6.770458E-2,-2.1882161E-2,6.372579E-2],"categories":[],"categories_nodes":[],"categories_segments":[],"categories_sizes":[],"default_left":[0,0,0,0,0,0,0,0,0,0,0,0,0,0,0,0,0,0,0,0,0,0,0,0,0,0,0,0,0,0,0,0,0,0,0,0,0,0,0,0,0,0,0,0,0,0,0,0,0,0,0,0,0,0,0,0,0,0,0,0,0],"id":2,"left_children":[1,3,5,7,9,11,13,15,17,19,21,23,25,27,29,31,33,35,37,39,41,43,45,47,49,51,53,55,57,59,-1,-1,-1,-1,-1,-1,-1,-1,-1,-1,-1,-1,-1,-1,-1,-1,-1,-1,-1,-1,-1,-1,-1,-1,-1,-1,-1,-1,-1,-1,-1],"loss_changes":[9.518319E2,6.1448834E2,1.0745175E2,1.415149E2,1.7119464E2,1.2378719E2,6.0118713E0,2.4442383E1,5.3053345E1,7.127943E1,3.0756165E1,6.2759666E1,5.20522E1,1.2648895E1,5.6933594E-1,1.9226074E0,2.6154633E1,2.2912788E1,3.0215508E1,3.0058716E1,3.5762264E1,3.5986897E1,3.2930374E0,2.8386536E0,3.3945366E1,4.3298813E1,8.782547E0,1.8483797E1,2.2409592E0,4.0683365E0,0E0,0E0,0E0,0E0,0E0,0E0,0E0,0E0,0E0,0E0,0E0,0E0,0E0,0E0,0E0,0E0,0E0,0E0,0E0,0E0,0E0,0E0,0E0,0E0,0E0,0E0,0E0,0E0,0E0,0E0,0E0],"parents":[2147483647,0,0,1,1,2,2,3,3,4,4,5,5,6,6,7,7,8,8,9,9,10,10,11,11,12,12,13,13,14,14,15,15,16,16,17,17,18,18,19,19,20,20,21,21,22,22,23,23,24,24,25,25,26,26,27,27,28,28,29,29],"right_children":[2,4,6,8,10,12,14,16,18,20,22,24,26,28,30,32,34,36,38,40,42,44,46,48,50,52,54,56,58,60,-1,-1,-1,-1,-1,-1,-1,-1,-1,-1,-1,-1,-1,-1,-1,-1,-1,-1,-1,-1,-1,-1,-1,-1,-1,-1,-1,-1,-1,-1,-1],"split_conditions":[2.4250902E1,4.493578E1,3.3251316E1,2.2528137E1,1.2215454E1,7.984025E0,7.7753563E0,1.626919E1,7.904499E1,6.4601776E1,1.2286549E1,3.3913933E1,3.1940182E1,2.9985352E1,4.4386913E1,4.0444336E1,8.099869E1,1.0010707E1,1.3892792E1,5.158161E1,1.1355679E1,1.04934425E2,5.125875E1,3.2401344E1,8.8371376E1,7.346073E1,1.3712335E1,4.6224598E1,4.2080105E1,2.5094831E1,6.931635E-2,-1.7655906E-1,-1.4387253E-1,-7.874711E-2,-1.6512099E-1,-8.580748E-2,3.1099504E-2,-1.6249423E-1,-5.0836444E-2,-3.598932E-2,-1.4395264E-1,-8.452487E-2,3.0746242E-2,3.6682088E-2,-6.330376E-2,3.67498E-2,6.562558E-2,-1.6877918E-1,-7.2951517E-3,4.162674E-2,-9.2313096E-2,4.286778E-2,-6.802032E-2,3.082259E-2,6.70349E-2,-8.200463E-2,4.188528E-2,3.9817467E-2,6.770458E-2,-2.1882161E-2,6.372579E-2],"split_indices":[2,1,1,0,0,0,0,0,3,1,2,2,2,2,1,1,3,2,2,3,2,3,1,1,3,3,0,1,1,2,0,0,0,0,0,0,0,0,0,0,0,0,0,0,0,0,0,0,0,0,0,0,0,0,0,0,0,0,0,0,0],"split_type":[0,0,0,0,0,0,0,0,0,0,0,0,0,0,0,0,0,0,0,0,0,0,0,0,0,0,0,0,0,0,0,0,0,0,0,0,0,0,0,0,0,0,0,0,0,0,0,0,0,0,0,0,0,0,0,0,0,0,0,0,0],"sum_hessian":[3.2229658E3,1.3854724E3,1.8374933E3,6.85686E2,6.9978644E2,5.974573E2,1.240036E3,4.995597E2,1.8612627E2,2.4977985E2,4.500066E2,1.22472694E2,4.7498456E2,2.5944873E2,9.8058734E2,3.5331763E2,1.4624207E2,8.742294E1,9.870332E1,1.2972437E2,1.2005547E2,1.6799709E2,2.820095E2,4.7941616E1,7.453108E1,1.3939326E2,3.355913E2,6.0430607E1,1.9901813E2,2.2762195E2,7.529654E2,3.0054156E2,5.2776062E1,7.573969E1,7.050237E1,2.1352148E1,6.60708E1,4.6733E1,5.197032E1,3.6661236E1,9.306313E1,3.907846E1,8.097701E1,1.17235374E2,5.076171E1,5.3178936E1,2.2883057E2,4.6733E1,1.2086122E0,4.109281E1,3.343827E1,6.566792E1,7.372534E1,9.668897E1,2.3890233E2,1.5309087E1,4.512152E1,4.1898556E1,1.5711958E2,5.2373195E0,2.2238463E2],"tree_param":{"num_deleted":"0","num_feature":"4","num_nodes":"61","size_leaf_vector":"1"}},{"base_weights":[-1.0476056E-2,1.3052539E0,-4.132922E-1,2.8663673E0,-2.2938229E-1,8.843765E-1,-4.805055E-1,1.4541076E-1,4.618568E0,1.4059534E0,-4.820223E-2,3.1657118E-1,-4.177218E-2,-9.8226756E-2,-5.0175905E-2,1.1967956E0,-4.4762608E-2,6.299127E-1,-1.7128167E-1,-2.9469823E-2,2.7190033E-1,1.0434204E-1,-4.367903E-2,1.9416696E-1,-2.711141E-2,2.4107846E-2,-3.613426E-2],"categories":[],"categories_nodes":[],"categories_segments":[],"categories_sizes":[],"default_left":[0,0,0,0,0,0,0,0,0,0,0,0,0,0,0,0,0,0,0,0,0,0,0,0,0,0,0],"id":3,"left_children":[1,3,5,7,9,11,13,15,17,19,-1,-1,-1,21,-1,23,-1,-1,25,-1,-1,-1,-1,-1,-1,-1,-1],"loss_changes":[1.0122913E2,1.0791708E2,1.3177528E1,1.0549518E2,1.0387926E1,2.3756239E1,1.0854073E0,6.6182103E0,1.09852325E2,8.394403E0,0E0,0E0,0E0,3.779462E0,0E0,4.670754E0,0E0,0E0,4.3847793E-1,0E0,0E0,0E0,0E0,0E0,0E0,0E0,0E0],"parents":[2147483647,0,0,1,1,2,2,3,3,4,4,5,5,6,6,7,7,8,8,9,9,13,13,15,15,18,18],"right_children":[2,4,6,8,10,12,14,16,18,20,-1,-1,-1,22,-1,24,-1,-1,26,-1,-1,-1,-1,-1,-1,-1,-1],"split_conditions":[1.30127E1,3.3251316E1,1.2847696E1,7.756949E1,4.758849E0,9.393473E0,3.4293208E0,7.3685765E0,1.6566252E1,1.054187E2,-4.820223E-2,3.1657118E-1,-4.177218E-2,1.8691336E1,-5.0175905E-2,9.091574E0,-4.4762608E-2,6.299127E-1,2.0811941E1,-2.9469823E-2,2.7190033E-1,1.0434204E-1,-4.367903E-2,1.9416696E-1,-2.711141E-2,2.4107846E-2,-3.613426E-2],"split_indices":[2,1,1,3,0,0,0,2,0,3,0,0,0,2,0,0,0,0,0,0,0,0,0,0,0,0,0],"split_type":[0,0,0,0,0,0,0,0,0,0,0,0,0,0,0,0,0,0,0,0,0,0,0,0,0,0,0],"sum_hessian":[1.8898152E2,4.3770935E1,1.4521059E2,2.1268105E1,2.2502832E1,6.5521564E0,1.3865843E2,8.755246E0,1.2512858E1,2.40035E0,2.0102482E1,1.8607681E0,4.6913886E0,7.599052E0,1.3105937E2,2.790297E0,5.9649496E0,9.029636E0,3.483222E0,1.3837237E0,1.0166264E0,1.2619183E0,6.3371334E0,1.6369175E0,1.1533797E0,1.0142523E0,2.4689698E0],"tree_param":{"num_deleted":"0","num_feature":"4","num_nodes":"27","size_leaf_vector":"1"}},{"base_weights":[-2.897293E-3,5.132272E-1,-4.3010238E-1,8.7628263E-1,-1.8623412E-1,-6.008771E-2,-5.8876383E-1,1.060652E0,3.0934492E-1,6.500245E-1,-4.088165E-1,5.0211644E-1,-3.8952726E-1,-4.0077516E-1,-6.36369E-1,1.2049751E0,7.7637124E-1,8.8191026E-1,-2.1183467E-1,1.194608E0,-5.961387E-2,6.719173E-2,-5.402001E-1,1.1901267E0,-1.4366287E-1,4.784472E-2,-5.9547156E-1,4.60876E-2,-5.785401E-1,-4.9461576E-1,-6.5076166E-1,1.0304695E-1,1.29584E-1,3.5674322E-2,1.251236E-1,3.2013096E-2,1.3069017E-1,6.549542E-2,-4.441501E-2,4.3598443E-2,1.4815585E-1,-4.9435794E-2,6.923537E-2,-3.1526867E-2,7.273054E-2,-6.2971346E-2,-2.1223506E-2,5.8790613E-2,1.4235291E-1,-5.3394765E-2,4.725736E-2,-5.4685753E-2,5.1389076E-2,-6.12289E-2,4.7996207E-3,7.722888E-2,-5.0681908E-2,-9.0638725E-3,-6.438634E-2,9.842466E-4,-5.9999403E-2,-6.551581E-2,-5.3156234E-2],"categories":[],"categories_nodes":[],"categories_segments":[],"categories_sizes":[],"default_left":[0,0,0,0,0,0,0,0,0,0,0,0,0,0,0,0,0,0,0,0,0,0,0,0,0,0,0,0,0,0,0,0,0,0,0,0,0,0,0,0,0,0,0,0,0,0,0,0,0,0,0,0,0,0,0,0,0,0,0,0,0,0,0],"id":4,"left_children":[1,3,5,7,9,11,13,15,17,19,21,23,25,27,29,31,33,35,37,39,41,43,45,47,49,51,53,55,57,59,61,-1,-1,-1,-1,-1,-1,-1,-1,-1,-1,-1,-1,-1,-1,-1,-1,-1,-1,-1,-1,-1,-1,-1,-1,-1,-1,-1,-1,-1,-1,-1,-1],"loss_changes":[6.896688E2,3.5987952E2,1.00433136E2,9.7161255E1,9.051244E1,9.55261E1,1.0462952E1,2.79234E1,6.890746E1,3.9608196E1,2.4022476E1,8.4859024E1,2.9311695E1,1.9464993E1,1.6243591E0,6.0335083E0,4.7310455E1,2.5827301E1,2.4729156E1,1.1965225E1,1.5175597E1,2.1398962E1,8.693611E0,1.2150055E1,2.4114126E1,2.938263E1,2.42202E0,2.8725569E1,5.5234375E0,4.9016685E0,1.0391235E-1,0E0,0E0,0E0,0E0,0E0,0E0,0E0,0E0,0E0,0E0,0E0,0E0,0E0,0E0,0E0,0E0,0E0,0E0,0E0,0E0,0E0,0E0,0E0,0E0,0E0,0E0,0E0,0E0,0E0,0E0,0E0,0E0],"parents":[2147483647,0,0,1,1,2,2,3,3,4,4,5,5,6,6,7,7,8,8,9,9,10,10,11,11,12,12,13,13,14,14,15,15,16,16,17,17,18,18,19,19,20,20,21,21,22,22,23,23,24,24,25,25,26,26,27,27,28,28,29,29,30,30],"right_children":[2,4,6,8,10,12,14,16,18,20,22,24,26,28,30,32,34,36,38,40,42,44,46,48,50,52,54,56,58,60,62,-1,-1,-1,-1,-1,-1,-1,-1,-1,-1,-1,-1,-1,-1,-1,-1,-1,-1,-1,-1,-1,-1,-1,-1,-1,-1,-1,-1,-1,-1,-1,-1],"split_conditions":[2.4250902E1,5.5080204E1,3.085219E1,2.2752745E1,7.8894906E0,1.18916645E1,2.9646196E1,4.01836E1,3.002802E1,1.6613363E1,8.982118E0,3.6973587E1,3.1940182E1,4.493578E1,4.758849E0,9.195884E0,8.318605E1,7.904499E1,8.982118E0,5.5500477E1,1.054187E2,1.04006676E2,1.18607925E2,4.9840477E1,1.0040483E2,7.346073E1,1.4720706E2,1.2486037E1,4.758849E0,3.8529404E1,1.4427493E2,1.0304695E-1,1.29584E-1,3.5674322E-2,1.251236E-1,3.2013096E-2,1.3069017E-1,6.549542E-2,-4.441501E-2,4.3598443E-2,1.4815585E-1,-4.9435794E-2,6.923537E-2,-3.1526867E-2,7.273054E-2,-6.2971346E-2,-2.1223506E-2,5.8790613E-2,1.4235291E-1,-5.3394765E-2,4.725736E-2,-5.4685753E-2,5.1389076E-2,-6.12289E-2,4.7996207E-3,7.722888E-2,-5.0681908E-2,-9.0638725E-3,-6.438634E-2,9.842466E-4,-5.9999403E-2,-6.551581E-2,-5.3156234E-2],"split_indices":[2,1,1,0,0,0,2,1,1,2,2,2,2,1,0,0,3,3,2,3,3,3,3,3,3,3,3,0,0,1,3,0,0,0,0,0,0,0,0,0,0,0,0,0,0,0,0,0,0,0,0,0,0,0,0,0,0,0,0,0,0,0,0],"split_type":[0,0,0,0,0,0,0,0,0,0,0,0,0,0,0,0,0,0,0,0,0,0,0,0,0,0,0,0,0,0,0,0,0,0,0,0,0,0,0,0,0,0,0,0,0,0,0,0,0,0,0,0,0,0,0,0,0,0,0,0,0,0,0],"sum_hessian":[3.125876E3,1.4155223E3,1.7103536E3,9.3168066E2,4.838417E2,5.137094E2,1.1966443E3,7.023908E2,2.2928986E2,1.0130624E2,3.8253546E2,1.8960884E2,3.241006E2,2.4370264E2,9.529416E2,4.6372778E2,2.3866304E2,1.0892893E2,1.2036093E2,5.693237E1,4.4373867E1,8.2851105E1,2.9968436E2,9.139457E1,9.8214264E1,1.0399981E2,2.2010078E2,6.956698E1,1.7413565E2,9.109679E1,8.6184485E2,1.6300938E2,3.007184E2,1.2763018E2,1.1103286E2,4.766962E1,6.125931E1,2.5055916E1,9.5305016E1,1.6316122E1,4.0616245E1,2.8334867E1,1.6039E1,5.278857E1,3.0062536E1,2.3470499E2,6.497938E1,2.6510777E1,6.488379E1,6.0212837E1,3.8001427E1,4.561675E1,5.838306E1,2.1454204E2,5.5587497E0,2.989948E1,3.9667496E1,2.0843378E1,1.5329228E2,1.5897957E1,7.519883E1,8.2685156E2,3.499327E1],"tree_param":{"num_deleted":"0","num_feature":"4","num_nodes":"63","size_leaf_vector":"1"}},{"base_weights":[3.4413843E-3,-5.336536E-1,4.4657445E-1,-1.0558274E0,3.3228617E-2,8.643481E-2,6.005299E-1,-1.2583505E0,-4.6932462E-1,-5.3593045E-1,3.7772915E-1,-4.6341652E-1,4.071497E-1,4.1799968E-1,6.466807E-1,-1.3620507E0,-9.927818E-1,4.049749E-2,-8.9477813E-1,-9.357926E-1,-6.280566E-2,5.8283627E-2,5.766318E-1,-1.1393639E0,1.6763608E-1,-1.9394314E-2,6.0696375E-1,-1.7540667E-2,5.9051734E-1,5.0903517E-1,6.606327E-1,-1.3970391E-1,-1.1645471E-1,-1.253526E-1,-4.2919032E-2,-6.893725E-2,3.3427946E-2,-1.2561955E-1,-3.1456683E-2,-1.2734316E-1,-3.8382526E-2,2.4391046E-2,-8.160822E-2,-6.385087E-2,3.5712168E-2,6.365176E-2,3.4160737E-2,-5.490405E-2,-1.3693775E-1,5.4770596E-2,-4.351839E-2,5.598576E-2,-4.76521E-2,6.2329944E-2,-2.2550458E-3,-7.293469E-2,5.2092593E-2,1.1530519E-2,6.539013E-2,1.6772285E-3,6.1124623E-2,6.6490196E-2,5.445198E-2],"categories":[],"categories_nodes":[],"categories_segments":[],"categories_sizes":[],"default_left":[0,0,0,0,0,0,0,0,0,0,0,0,0,0,0,0,0,0,0,0,0,0,0,0,0,0,0,0,0,0,0,0,0,0,0,0,0,0,0,0,0,0,0,0,0,0,0,0,0,0,0,0,0,0,0,0,0,0,0,0,0,0,0],"id":5,"left_children":[1,3,5,7,9,11,13,15,17,19,21,23,25,27,29,31,33,35,37,39,41,43,45,47,49,51,53,55,57,59,61,-1,-1,-1,-1,-1,-1,-1,-1,-1,-1,-1,-1,-1,-1,-1,-1,-1,-1,-1,-1,-1,-1,-1,-1,-1,-1,-1,-1,-1,-1,-1,-1],"loss_changes":[7.644322E2,4.298381E2,9.752405E1,8.918677E1,1.3689798E2,9.3332535E1,1.0113525E1,1.410376E1,4.2462173E1,4.974987E1,2.7597832E1,8.3391914E1,2.849017E1,1.8914848E1,1.5497131E0,1.1437378E0,2.3164993E1,1.9514061E1,2.1972E1,2.6089928E1,2.830872E1,3.5207237E1,3.553032E0,1.2053001E1,2.3550112E1,2.8748322E1,2.354332E0,2.8111914E1,5.3536453E0,4.756605E0,7.8308105E-2,0E0,0E0,0E0,0E0,0E0,0E0,0E0,0E0,0E0,0E0,0E0,0E0,0E0,0E0,0E0,0E0,0E0,0E0,0E0,0E0,0E0,0E0,0E0,0E0,0E0,0E0,0E0,0E0,0E0,0E0,0E0,0E0],"parents":[2147483647,0,0,1,1,2,2,3,3,4,4,5,5,6,6,7,7,8,8,9,9,10,10,11,11,12,12,13,13,14,14,15,15,16,16,17,17,18,18,19,19,20,20,21,21,22,22,23,23,24,24,25,25,26,26,27,27,28,28,29,29,30,30],"right_children":[2,4,6,8,10,12,14,16,18,20,22,24,26,28,30,32,34,36,38,40,42,44,46,48,50,52,54,56,58,60,62,-1,-1,-1,-1,-1,-1,-1,-1,-1,-1,-1,-1,-1,-1,-1,-1,-1,-1,-1,-1,-1,-1,-1,-1,-1,-1,-1,-1,-1,-1,-1,-1],"split_conditions":[2.4250902E1,4.493578E1,3.085219E1,2.2528137E1,1.2215454E1,1.18916645E1,2.9646196E1,1.626919E1,7.904499E1,6.4601776E1,1.2286549E1,3.6973587E1,3.1940182E1,4.493578E1,4.758849E0,3.9917355E1,3.3792927E1,1.810474E1,3.002802E1,1.7161343E1,1.10414536E2,5.5080204E1,1.1739611E2,4.9840477E1,1.0040483E2,7.346073E1,1.4720706E2,1.2486037E1,4.758849E0,3.8529404E1,1.4427493E2,-1.3970391E-1,-1.1645471E-1,-1.253526E-1,-4.2919032E-2,-6.893725E-2,3.3427946E-2,-1.2561955E-1,-3.1456683E-2,-1.2734316E-1,-3.8382526E-2,2.4391046E-2,-8.160822E-2,-6.385087E-2,3.5712168E-2,6.365176E-2,3.4160737E-2,-5.490405E-2,-1.3693775E-1,5.4770596E-2,-4.351839E-2,5.598576E-2,-4.76521E-2,6.2329944E-2,-2.2550458E-3,-7.293469E-2,5.2092593E-2,1.1530519E-2,6.539013E-2,1.6772285E-3,6.1124623E-2,6.6490196E-2,5.445198E-2],"split_indices":[2,1,1,0,0,0,2,0,3,1,2,2,2,1,0,1,1,1,1,2,3,1,3,3,3,3,3,0,0,1,3,0,0,0,0,0,0,0,0,0,0,0,0,0,0,0,0,0,0,0,0,0,0,0,0,0,0,0,0,0,0,0,0],"split_type":[0,0,0,0,0,0,0,0,0,0,0,0,0,0,0,0,0,0,0,0,0,0,0,0,0,0,0,0,0,0,0,0,0,0,0,0,0,0,0,0,0,0,0,0,0,0,0,0,0,0,0,0,0,0,0,0,0,0,0,0,0,0,0],"sum_hessian":[3.2098372E3,1.4509832E3,1.758854E3,7.5482587E2,6.9615735E2,5.271896E2,1.2316644E3,5.6022955E2,1.945963E2,2.6228055E2,4.338768E2,1.9405168E2,3.3313788E2,2.5059564E2,9.8106885E2,3.9993344E2,1.6029611E2,8.8932755E1,1.0566354E2,1.4161583E2,1.2066473E2,1.6698509E2,2.668917E2,9.330414E1,1.0074754E2,1.06562126E2,2.2657576E2,7.135363E1,1.7924202E2,9.374088E1,8.8732794E2,3.3458682E2,6.534661E1,1.0875616E2,5.1539963E1,2.5136715E1,6.379604E1,6.4389725E1,4.1273823E1,8.705631E1,5.4559513E1,8.62301E1,3.4434628E1,4.977934E1,1.1720575E2,2.1133405E2,5.555766E1,2.7111137E1,6.6193E1,6.184594E1,3.8901608E1,4.6903378E1,5.9658745E1,2.2085454E2,5.721224E0,3.0577858E1,4.077577E1,2.1425617E1,1.5781639E2,1.6317513E1,7.742337E1,8.5130133E2,3.6026627E1],"tree_param":{"num_deleted":"0","num_feature":"4","num_nodes":"63","size_leaf_vector":"1"}},{"base_weights":[-1.1406099E-2,1.0273472E0,-4.209313E-1,2.1647496E0,-9.569608E-2,5.869749E-1,-4.7819898E-1,1.4167273E-1,3.141896E0,1.4092162E0,-4.8423294E-2,2.863101E-1,-2.7671087E-1,-8.786874E-2,-5.010986E-2,1.1428876E0,-4.4350695E-2,3.6316855E0,-3.4455463E-2,-1.563744E-1,3.3775768E-1,2.4346925E-2,-4.150049E-2,1.0571291E-1,-4.3509647E-2,2.3958533E-1,-3.3628445E-2,1.8312159E-1,3.9064014E-1,2.3719214E-2,-3.51729E-2],"categories":[],"categories_nodes":[],"categories_segments":[],"categories_sizes":[],"default_left":[0,0,0,0,0,0,0,0,0,0,0,0,0,0,0,0,0,0,0,0,0,0,0,0,0,0,0,0,0,0,0],"id":6,"left_children":[1,3,5,7,9,11,13,15,17,19,-1,-1,21,23,-1,25,-1,27,-1,29,-1,-1,-1,-1,-1,-1,-1,-1,-1,-1,-1],"loss_changes":[8.079931E1,6.881593E1,8.142845E0,5.2391113E1,1.704509E1,1.607117E1,1.1129475E0,6.220577E0,3.194664E1,1.9012184E1,0E0,0E0,5.7195175E-1,3.7938762E0,0E0,7.990926E0,0E0,6.851654E-1,0E0,4.1377205E-1,0E0,0E0,0E0,0E0,0E0,0E0,0E0,0E0,0E0,0E0,0E0],"parents":[2147483647,0,0,1,1,2,2,3,3,4,4,5,5,6,6,7,7,8,8,9,9,12,12,13,13,15,15,17,17,19,19],"right_children":[2,4,6,8,10,12,14,16,18,20,-1,-1,22,24,-1,26,-1,28,-1,30,-1,-1,-1,-1,-1,-1,-1,-1,-1,-1,-1],"split_conditions":[1.3543417E1,9.393473E0,1.2847696E1,7.756949E1,2.0539803E1,1.8003906E1,3.4293208E0,1.991247E1,4.670769E1,1.13009186E2,-4.8423294E-2,2.863101E-1,2.1272398E1,2.4124111E1,-5.010986E-2,7.3685765E0,-4.4350695E-2,8.887089E1,-3.4455463E-2,1.4044971E1,3.3775768E-1,2.4346925E-2,-4.150049E-2,1.0571291E-1,-4.3509647E-2,2.3958533E-1,-3.3628445E-2,1.8312159E-1,3.9064014E-1,2.3719214E-2,-3.51729E-2],"split_indices":[2,0,1,3,1,2,0,1,1,3,0,0,2,1,0,2,0,3,0,0,0,0,0,0,0,0,0,0,0,0,0],"split_type":[0,0,0,0,0,0,0,0,0,0,0,0,0,0,0,0,0,0,0,0,0,0,0,0,0,0,0,0,0,0,0],"sum_hessian":[1.8792262E2,5.2711704E1,1.3521092E2,2.5727589E1,2.6984116E1,6.7721395E0,1.2843878E2,8.752161E0,1.6975428E1,4.998098E0,2.1986017E1,1.2260561E0,5.5460835E0,7.3856463E0,1.2105314E2,2.8768876E0,5.875273E0,1.4847885E1,2.1275432E0,3.2966063E0,1.7014917E0,1.0050734E0,4.54101E0,1.2428414E0,6.1428046E0,1.2220212E0,1.6548663E0,2.9803991E0,1.1867486E1,1.0224961E0,2.27411E0],"tree_param":{"num_deleted":"0","num_feature":"4","num_nodes":"31","size_leaf_vector":"1"}},{"base_weights":[-4.515106E-3,4.0891853E-1,-4.482132E-1,7.406497E-1,-1.5759955E-1,-2.8609099E-2,-5.631966E-1,9.3810767E-1,3.2417217E-1,3.1519666E-1,-4.7186494E-1,7.606719E-1,-2.7475595E-1,-3.7472683E-1,-6.079393E-1,1.0065438E0,7.506107E-1,7.275711E-1,-1.00814514E-1,7.8797424E-1,-1.4782223E-1,-5.1019482E-2,-5.713664E-1,1.0893723E0,-2.0713668E-1,1.2316484E-1,-5.2081907E-1,3.807236E-2,-5.439721E-1,-6.2159556E-1,-4.3585604E-1,6.888982E-2,1.0360306E-1,1.0627624E-1,2.0680886E-2,1.1184182E-1,2.1377895E-2,5.9454065E-2,-3.712766E-2,2.7798496E-3,1.1338222E-1,-4.7166303E-2,4.599059E-2,-4.713958E-2,7.003928E-2,-2.9188266E-2,-6.1146136E-2,6.6317506E-2,1.2807286E-1,-4.60591E-2,9.1154054E-2,-4.0632375E-2,6.875514E-2,-2.0712782E-2,-6.123754E-2,9.1406815E-2,-3.1293493E-2,-3.6053985E-2,-6.360134E-2,-4.9542066E-2,-6.326484E-2,-9.27158E-3,-6.30565E-2],"categories":[],"categories_nodes":[],"categories_segments":[],"categories_sizes":[],"default_left":[0,0,0,0,0,0,0,0,0,0,0,0,0,0,0,0,0,0,0,0,0,0,0,0,0,0,0,0,0,0,0,0,0,0,0,0,0,0,0,0,0,0,0,0,0,0,0,0,0,0,0,0,0,0,0,0,0,0,0,0,0,0,0],"id":7,"left_children":[1,3,5,7,9,11,13,15,17,19,21,23,25,27,29,31,33,35,37,39,41,43,45,47,49,51,53,55,57,59,61,-1,-1,-1,-1,-1,-1,-1,-1,-1,-1,-1,-1,-1,-1,-1,-1,-1,-1,-1,-1,-1,-1,-1,-1,-1,-1,-1,-1,-1,-1,-1,-1],"loss_changes":[5.6575433E2,3.001547E2,7.175772E1,8.251587E1,8.78777E1,6.2576923E1,9.618134E0,8.004028E0,5.586569E1,5.1855576E1,1.4839783E1,2.4587307E1,2.4096275E1,1.5852978E1,1.942749E0,3.9430847E0,3.1433914E1,3.331288E1,3.0190273E1,3.0755394E1,2.3883276E1,2.2124714E1,3.0385437E0,3.8258133E0,6.1629424E0,2.8546577E1,4.2343903E0,2.083466E1,2.4852867E0,9.003906E-1,4.792432E0,0E0,0E0,0E0,0E0,0E0,0E0,0E0,0E0,0E0,0E0,0E0,0E0,0E0,0E0,0E0,0E0,0E0,0E0,0E0,0E0,0E0,0E0,0E0,0E0,0E0,0E0,0E0,0E0,0E0,0E0,0E0,0E0],"parents":[2147483647,0,0,1,1,2,2,3,3,4,4,5,5,6,6,7,7,8,8,9,9,10,10,11,11,12,12,13,13,14,14,15,15,16,16,17,17,18,18,19,19,20,20,21,21,22,22,23,23,24,24,25,25,26,26,27,27,28,28,29,29,30,30],"right_children":[2,4,6,8,10,12,14,16,18,20,22,24,26,28,30,32,34,36,38,40,42,44,46,48,50,52,54,56,58,60,62,-1,-1,-1,-1,-1,-1,-1,-1,-1,-1,-1,-1,-1,-1,-1,-1,-1,-1,-1,-1,-1,-1,-1,-1,-1,-1,-1,-1,-1,-1,-1,-1],"split_conditions":[2.6317299E1,5.1816048E1,2.4696133E1,2.022208E1,1.2215454E1,8.194537E0,7.2205925E0,4.0444336E1,3.002802E1,1.5398937E1,8.788936E0,4.256243E1,3.509673E1,3.9360104E1,1.394423E2,1.2847696E1,1.8159685E1,1.7342197E1,1.0321418E1,5.604092E1,1.0657899E2,1.07553795E2,1.4358279E1,5.5500477E1,1.2732454E2,8.211067E1,1.2098259E1,3.3183323E1,3.3913933E1,2.8546694E1,3.441247E1,6.888982E-2,1.0360306E-1,1.0627624E-1,2.0680886E-2,1.1184182E-1,2.1377895E-2,5.9454065E-2,-3.712766E-2,2.7798496E-3,1.1338222E-1,-4.7166303E-2,4.599059E-2,-4.713958E-2,7.003928E-2,-2.9188266E-2,-6.1146136E-2,6.6317506E-2,1.2807286E-1,-4.60591E-2,9.1154054E-2,-4.0632375E-2,6.875514E-2,-2.0712782E-2,-6.123754E-2,9.1406815E-2,-3.1293493E-2,-3.6053985E-2,-6.360134E-2,-4.9542066E-2,-6.326484E-2,-9.27158E-3,-6.30565E-2],"split_indices":[2,1,1,0,0,0,0,1,1,2,2,2,2,1,3,1,2,2,2,3,3,3,0,3,3,3,0,2,2,2,2,0,0,0,0,0,0,0,0,0,0,0,0,0,0,0,0,0,0,0,0,0,0,0,0,0,0,0,0,0,0,0,0],"split_type":[0,0,0,0,0,0,0,0,0,0,0,0,0,0,0,0,0,0,0,0,0,0,0,0,0,0,0,0,0,0,0,0,0,0,0,0,0,0,0,0,0,0,0,0,0,0,0,0,0,0,0,0,0,0,0,0,0,0,0,0,0,0,0],"sum_hessian":[3.082144E3,1.5955264E3,1.4866178E3,1.0060909E3,5.894355E2,3.200224E2,1.1665955E3,6.816557E2,3.2443515E2,2.3535419E2,3.540813E2,7.558033E1,2.4444206E2,2.2561449E2,9.409809E2,4.9618173E2,1.8547397E2,1.660797E2,1.5835545E2,1.16102684E2,1.19251495E2,6.799719E1,2.860841E2,5.6324894E1,1.9255432E1,9.359097E1,1.5085109E2,6.582891E1,1.5978557E2,8.6937634E2,7.160461E1,4.4217014E1,4.5196472E2,1.1722848E2,6.824549E1,9.365702E1,7.2422676E1,4.400943E1,1.1434603E2,3.6642544E1,7.946014E1,7.794222E1,4.1309277E1,4.384233E1,2.4154865E1,3.693142E1,2.491527E2,1.8836681E1,3.7488213E1,1.6178259E1,3.0771732E0,4.8432903E1,4.5158066E1,3.481835E1,1.1603274E2,1.8372707E1,4.7456207E1,5.503054E1,1.04755035E2,7.371331E1,7.95663E2,2.645627E1,4.514834E1],"tree_param":{"num_deleted":"0","num_feature":"4","num_nodes":"63","size_leaf_vector":"1"}},{"base_weights":[5.084164E-3,-4.6884626E-1,4.2454228E-1,-8.358815E-1,1.2774049E-1,1.0742468E-1,5.9113026E-1,-1.0528537E0,-3.7823355E-1,-3.7422264E-1,4.5619166E-1,-5.718472E-1,3.19806E-1,4.4911137E-1,6.2939024E-1,-1.1648517E0,-7.7574754E-1,-8.0253655E-1,6.0190525E-2,-7.3923427E-1,1.2964512E-1,3.4526076E-2,5.6946886E-1,-8.9523053E-1,3.729031E-1,-1.204652E-1,5.274571E-1,8.047089E-2,5.706357E-1,5.6702876E-1,6.476441E-2,-1.0270899E-1,-1.21855915E-1,-1.0128422E-1,-1.9216545E-2,-1.1780764E-1,-4.2673822E-2,-5.6467254E-2,3.4412984E-2,1.8985886E-3,-1.0747051E-1,4.8150033E-2,-5.2354395E-2,5.151536E-2,-5.90908E-2,4.050291E-2,6.432807E-2,-5.9934497E-2,-1.2300122E-1,5.900454E-2,-3.9557766E-2,-5.550861E-2,3.800311E-2,2.9245336E-2,6.2404122E-2,5.4350205E-2,-4.30242E-2,3.4485288E-2,6.307756E-2,2.4039708E-2,6.2381256E-2],"categories":[],"categories_nodes":[],"categories_segments":[],"categories_sizes":[],"default_left":[0,0,0,0,0,0,0,0,0,0,0,0,0,0,0,0,0,0,0,0,0,0,0,0,0,0,0,0,0,0,0,0,0,0,0,0,0,0,0,0,0,0,0,0,0,0,0,0,0,0,0,0,0,0,0,0,0,0,0,0,0],"id":8,"left_children":[1,3,5,7,9,11,13,15,17,19,21,23,25,27,29,31,33,35,37,39,41,43,45,47,49,51,53,55,57,59,-1,-1,-1,-1,-1,-1,-1,-1,-1,-1,-1,-1,-1,-1,-1,-1,-1,-1,-1,-1,-1,-1,-1,-1,-1,-1,-1,-1,-1,-1,-1],"loss_changes":[6.28769E2,3.2528314E2,8.857544E1,9.090851E1,9.357072E1,8.3724045E1,5.693207E0,1.8438538E1,5.5353817E1,4.140696E1,1.6358414E1,4.2583527E1,4.0453506E1,1.0566776E1,6.161804E-1,2.0175781E0,2.5040451E1,2.08292E1,2.6301811E1,3.3190605E1,2.2134336E1,2.2450584E1,3.0192184E0,9.497231E0,6.2358346E0,3.1187399E1,6.6356354E0,1.4398029E1,2.199459E0,3.6271744E0,0E0,0E0,0E0,0E0,0E0,0E0,0E0,0E0,0E0,0E0,0E0,0E0,0E0,0E0,0E0,0E0,0E0,0E0,0E0,0E0,0E0,0E0,0E0,0E0,0E0,0E0,0E0,0E0,0E0,0E0,0E0],"parents":[2147483647,0,0,1,1,2,2,3,3,4,4,5,5,6,6,7,7,8,8,9,9,10,10,11,11,12,12,13,13,14,14,15,15,16,16,17,17,18,18,19,19,20,20,21,21,22,22,23,23,24,24,25,25,26,26,27,27,28,28,29,29],"right_children":[2,4,6,8,10,12,14,16,18,20,22,24,26,28,30,32,34,36,38,40,42,44,46,48,50,52,54,56,58,60,-1,-1,-1,-1,-1,-1,-1,-1,-1,-1,-1,-1,-1,-1,-1,-1,-1,-1,-1,-1,-1,-1,-1,-1,-1,-1,-1,-1,-1,-1,-1],"split_conditions":[2.4250902E1,5.0760174E1,3.3251316E1,2.022208E1,1.2215454E1,8.194537E0,7.7753563E0,1.8691336E1,2.9732618E1,1.608461E1,8.788936E0,4.256243E1,3.1940182E1,2.9985352E1,4.4386913E1,5.158161E1,4.01836E1,1.4534345E1,1.0482387E1,5.604092E1,1.054187E2,9.778938E1,6.0567265E1,8.8371376E1,1.1739611E2,2.022208E1,1.3712335E1,9.054391E1,4.2080105E1,2.8546694E1,6.476441E-2,-1.0270899E-1,-1.21855915E-1,-1.0128422E-1,-1.9216545E-2,-1.1780764E-1,-4.2673822E-2,-5.6467254E-2,3.4412984E-2,1.8985886E-3,-1.0747051E-1,4.8150033E-2,-5.2354395E-2,5.151536E-2,-5.90908E-2,4.050291E-2,6.432807E-2,-5.9934497E-2,-1.2300122E-1,5.900454E-2,-3.9557766E-2,-5.550861E-2,3.800311E-2,2.9245336E-2,6.2404122E-2,5.4350205E-2,-4.30242E-2,3.4485288E-2,6.307756E-2,2.4039708E-2,6.2381256E-2],"split_indices":[2,1,1,0,0,0,0,2,1,2,2,2,2,2,1,3,1,2,2,3,3,3,1,3,3,0,0,3,1,2,0,0,0,0,0,0,0,0,0,0,0,0,0,0,0,0,0,0,0,0,0,0,0,0,0,0,0,0,0,0,0],"split_type":[0,0,0,0,0,0,0,0,0,0,0,0,0,0,0,0,0,0,0,0,0,0,0,0,0,0,0,0,0,0,0,0,0,0,0,0,0,0,0,0,0,0,0,0,0,0,0,0,0,0,0,0,0,0,0,0,0,0,0,0,0],"sum_hessian":[3.1609167E3,1.4840383E3,1.6768784E3,9.185327E2,5.6550555E2,5.7808264E2,1.0987958E3,6.2223065E2,2.9630203E2,2.2361754E2,3.4188803E2,1.3728937E2,4.407933E2,2.3589705E2,8.6289874E2,4.4084918E2,1.8138147E2,1.501539E2,1.4614813E2,1.2940611E2,9.4211426E1,7.267304E1,2.69215E2,1.0231862E2,3.4970745E1,1.4140337E2,2.9938995E2,5.889697E1,1.7700008E2,2.0264789E2,6.6025085E2,1.2930382E2,3.1154538E2,1.2845705E2,5.292443E1,7.403497E1,7.611893E1,4.535251E1,1.0079562E2,3.998247E1,8.9423645E1,6.1399845E1,3.281158E1,4.1193436E1,3.1479605E1,8.54143E1,1.8380069E2,5.5795704E1,4.652292E1,2.744739E1,7.523355E0,7.562397E1,6.5779396E1,8.837882E1,2.1101112E2,3.0856829E1,2.804014E1,3.8645973E1,1.3835411E2,3.0787233E1,1.7186066E2],"tree_param":{"num_deleted":"0","num_feature":"4","num_nodes":"61","size_leaf_vector":"1"}},{"base_weights":[-7.4742185E-3,8.8938755E-1,-4.1546404E-1,1.63465E0,-2.3681584E-1,5.518974E-1,-4.7604752E-1,-2.2460854E-1,2.137706E0,1.0333925E0,-4.8156857E-2,2.0688148E0,-4.1777536E-2,-8.066004E-2,-5.0046843E-2,6.4674266E-2,-4.491819E-2,2.577689E0,-4.06176E-2,-3.5132658E-2,2.7281493E-1,3.6499175E-1,-2.8462682E-2,1.00250356E-1,-4.3239202E-2,1.788809E-1,3.1636462E-1],"categories":[],"categories_nodes":[],"categories_segments":[],"categories_sizes":[],"default_left":[0,0,0,0,0,0,0,0,0,0,0,0,0,0,0,0,0,0,0,0,0,0,0,0,0,0,0],"id":9,"left_children":[1,3,5,7,9,11,13,15,17,19,-1,21,-1,23,-1,-1,-1,25,-1,-1,-1,-1,-1,-1,-1,-1,-1],"loss_changes":[6.828391E1,4.9362465E1,7.77911E0,3.344149E1,7.9932566E0,1.2663759E1,1.1301994E0,1.9360976E0,3.2197845E1,1.0845571E1,0E0,1.33042145E1,0E0,3.5744166E0,0E0,0E0,0E0,5.371872E0,0E0,0E0,0E0,0E0,0E0,0E0,0E0,0E0,0E0],"parents":[2147483647,0,0,1,1,2,2,3,3,4,4,5,5,6,6,7,7,8,8,9,9,11,11,13,13,17,17],"right_children":[2,4,6,8,10,12,14,16,18,20,-1,22,-1,24,-1,-1,-1,26,-1,-1,-1,-1,-1,-1,-1,-1,-1],"split_conditions":[1.3543417E1,3.3251316E1,1.2847696E1,6.56047E1,4.758849E0,1.9516525E1,3.4293208E0,2.993941E0,1.8225185E1,1.3296921E2,-4.8156857E-2,1.2594719E1,-4.1777536E-2,1.8691336E1,-5.0046843E-2,6.4674266E-2,-4.491819E-2,1.1140369E2,-4.06176E-2,-3.5132658E-2,2.7281493E-1,3.6499175E-1,-2.8462682E-2,1.00250356E-1,-4.3239202E-2,1.788809E-1,3.1636462E-1],"split_indices":[2,1,1,3,0,2,0,0,0,3,0,0,0,2,0,0,0,3,0,0,0,0,0,0,0,0,0],"split_type":[0,0,0,0,0,0,0,0,0,0,0,0,0,0,0,0,0,0,0,0,0,0,0,0,0,0,0],"sum_hessian":[1.846039E2,5.7351437E1,1.2725246E2,3.424104E1,2.3110397E1,7.0218577E0,1.202306E2,7.4095154E0,2.6831522E1,3.2130811E0,1.9897316E1,2.2962217E0,4.725636E0,7.244304E0,1.129863E2,1.1331166E0,6.2763987E0,2.2863775E1,3.9677467E0,2.2045379E0,1.0085434E0,1.0439705E0,1.2522513E0,1.3222439E0,5.92206E0,1.1471874E1,1.1391901E1],"tree_param":{"num_deleted":"0","num_feature":"4","num_nodes":"27","size_leaf_vector":"1"}},{"base_weights":[-5.542176E-3,3.643994E-1,-4.282259E-1,6.2505364E-1,-2.0086321E-1,-2.1745862E-2,-5.442835E-1,8.0799186E-1,2.6638654E-1,4.3591312E-1,-3.9650214E-1,4.3034717E-1,-4.0084964E-1,-3.5692674E-1,-5.898806E-1,8.714622E-1,6.335826E-1,-1.3781282E-1,6.207614E-1,9.290927E-1,-1.1864908E-1,6.1933123E-2,-5.188412E-1,8.3637685E-1,-3.092135E-1,4.0185116E-2,-5.8917964E-1,-6.124265E-2,-5.7680863E-1,-6.0524356E-1,-4.22781E-1,6.408477E-2,9.081986E-2,1.1304406E-1,3.256654E-2,3.937119E-2,-4.44E-2,8.3237216E-2,2.9300458E-3,-3.56425E-2,1.0159091E-1,-4.7004808E-2,4.220592E-2,3.7622534E-2,-5.5150546E-2,-6.012739E-2,-2.3890812E-2,8.154795E-3,1.1288913E-1,-5.4900296E-2,2.18842E-2,-5.5103015E-2,5.9795883E-2,-6.0476303E-2,-6.260515E-4,8.2901284E-2,-3.174164E-2,-2.5341062E-2,-5.9738364E-2,-4.8741177E-2,-6.1564278E-2,4.135452E-3,-5.6743678E-2],"categories":[],"categories_nodes":[],"categories_segments":[],"categories_sizes":[],"default_left":[0,0,0,0,0,0,0,0,0,0,0,0,0,0,0,0,0,0,0,0,0,0,0,0,0,0,0,0,0,0,0,0,0,0,0,0,0,0,0,0,0,0,0,0,0,0,0,0,0,0,0,0,0,0,0,0,0,0,0,0,0,0,0],"id":10,"left_children":[1,3,5,7,9,11,13,15,17,19,21,23,25,27,29,31,33,35,37,39,41,43,45,47,49,51,53,55,57,59,61,-1,-1,-1,-1,-1,-1,-1,-1,-1,-1,-1,-1,-1,-1,-1,-1,-1,-1,-1,-1,-1,-1,-1,-1,-1,-1,-1,-1,-1,-1,-1,-1],"loss_changes":[4.7224106E2,2.374158E2,6.648346E1,7.212344E1,6.3586334E1,5.400727E1,9.1562195E0,7.5245056E0,5.3639427E1,3.2960266E1,2.1900345E1,4.3422665E1,1.4257032E1,1.4082317E1,2.0039978E0,3.9273682E0,2.9975464E1,2.8733452E1,2.493245E1,7.469795E0,1.1109115E1,1.6215254E1,6.9610367E0,2.0457031E1,6.663614E0,1.7547897E1,1.0876236E0,2.1638554E1,6.764641E-1,6.849365E-1,5.222522E0,0E0,0E0,0E0,0E0,0E0,0E0,0E0,0E0,0E0,0E0,0E0,0E0,0E0,0E0,0E0,0E0,0E0,0E0,0E0,0E0,0E0,0E0,0E0,0E0,0E0,0E0,0E0,0E0,0E0,0E0,0E0,0E0],"parents":[2147483647,0,0,1,1,2,2,3,3,4,4,5,5,6,6,7,7,8,8,9,9,10,10,11,11,12,12,13,13,14,14,15,15,16,16,17,17,18,18,19,19,20,20,21,21,22,22,23,23,24,24,25,25,26,26,27,27,28,28,29,29,30,30],"right_children":[2,4,6,8,10,12,14,16,18,20,22,24,26,28,30,32,34,36,38,40,42,44,46,48,50,52,54,56,58,60,62,-1,-1,-1,-1,-1,-1,-1,-1,-1,-1,-1,-1,-1,-1,-1,-1,-1,-1,-1,-1,-1,-1,-1,-1,-1,-1,-1,-1,-1,-1,-1,-1],"split_conditions":[2.6317299E1,5.5080204E1,2.4696133E1,1.9605509E1,7.8894906E0,1.4241379E1,7.2205925E0,4.2080105E1,7.904499E1,1.6613363E1,8.982118E0,4.13289E1,3.2109196E1,4.6224598E1,1.3841483E2,7.867282E0,1.2643341E1,2.5470438E1,4.01836E1,2.17897E1,1.054187E2,2.1657755E1,1.18607925E2,4.9840477E1,1.0245049E2,8.375211E1,1.4781438E2,3.067653E1,2.761172E1,2.8546694E1,3.7955494E1,6.408477E-2,9.081986E-2,1.1304406E-1,3.256654E-2,3.937119E-2,-4.44E-2,8.3237216E-2,2.9300458E-3,-3.56425E-2,1.0159091E-1,-4.7004808E-2,4.220592E-2,3.7622534E-2,-5.5150546E-2,-6.012739E-2,-2.3890812E-2,8.154795E-3,1.1288913E-1,-5.4900296E-2,2.18842E-2,-5.5103015E-2,5.9795883E-2,-6.0476303E-2,-6.260515E-4,8.2901284E-2,-3.174164E-2,-2.5341062E-2,-5.9738364E-2,-4.8741177E-2,-6.1564278E-2,4.135452E-3,-5.6743678E-2],"split_indices":[2,1,1,0,0,0,0,1,3,2,2,2,2,1,3,2,2,1,1,3,3,0,3,3,3,3,3,2,2,2,1,0,0,0,0,0,0,0,0,0,0,0,0,0,0,0,0,0,0,0,0,0,0,0,0,0,0,0,0,0,0,0,0],"split_type":[0,0,0,0,0,0,0,0,0,0,0,0,0,0,0,0,0,0,0,0,0,0,0,0,0,0,0,0,0,0,0,0,0,0,0,0,0,0,0,0,0,0,0,0,0,0,0,0,0,0,0,0,0,0,0,0,0,0,0,0,0,0,0],"sum_hessian":[3.0180583E3,1.6095151E3,1.4085432E3,1.1014897E3,5.0802542E2,3.131065E2,1.0954368E3,7.286096E2,3.7288016E2,1.19110344E2,3.8891507E2,1.4274431E2,1.703622E2,2.1614249E2,8.7929425E2,5.3127374E2,1.9733583E2,1.7447984E2,1.9840031E2,6.2686787E1,5.642356E1,8.202827E1,3.068868E2,9.206717E1,5.0677135E1,5.121427E1,1.1914792E2,9.272711E1,1.2341538E2,8.0285803E2,7.643617E1,7.5536026E1,4.5573773E2,7.448115E1,1.2285469E2,6.366862E1,1.1081122E2,1.458215E2,5.25788E1,3.7692206E0,5.8917564E1,3.4277657E1,2.2145905E1,5.449482E1,2.7533453E1,2.3618794E2,7.069887E1,2.607077E1,6.59964E1,3.4823948E1,1.5853187E1,2.4867702E1,2.634657E1,1.1600914E2,3.1387858E0,2.0220535E1,7.250658E1,8.178709E0,1.1523667E2,6.899217E1,7.338659E2,1.833179E1,5.810438E1],"tree_param":{"num_deleted":"0","num_feature":"4","num_nodes":"63","size_leaf_vector":"1"}},{"base_weights":[5.8627483E-3,-4.2037883E-1,4.0472153E-1,-8.001848E-1,3.4122515E-2,9.975966E-2,5.7153517E-1,-9.1096044E-1,-2.0750995E-1,-4.2925635E-1,3.454133E-1,-3.3648792E-1,3.8349304E-1,4.2717278E-1,6.111876E-1,-1.031355E0,-6.9847196E-1,-6.701269E-1,1.4466469E-1,-6.910993E-1,1.0908344E-1,4.974094E-2,5.4298484E-1,-8.2083195E-1,1.822451E-1,2.6649723E-2,5.710846E-1,7.2255276E-2,5.500184E-1,5.464452E-1,6.3031435E-2,-1.06048934E-1,-9.176785E-2,-3.6813743E-2,-1.0181345E-1,-8.931884E-2,5.346715E-3,4.83741E-2,-3.9207146E-2,-1.1855754E-2,-8.7918386E-2,-2.9890036E-2,5.1576834E-2,-5.0823845E-2,3.211756E-2,6.0616013E-2,3.0347833E-2,-3.3148352E-2,-1.0063868E-1,5.28112E-2,-3.1321254E-2,5.4683197E-2,-3.5404548E-2,1.4038253E-2,5.99643E-2,5.2709546E-2,-4.038753E-2,3.22869E-2,6.1250973E-2,2.2946132E-2,6.044786E-2],"categories":[],"categories_nodes":[],"categories_segments":[],"categories_sizes":[],"default_left":[0,0,0,0,0,0,0,0,0,0,0,0,0,0,0,0,0,0,0,0,0,0,0,0,0,0,0,0,0,0,0,0,0,0,0,0,0,0,0,0,0,0,0,0,0,0,0,0,0,0,0,0,0,0,0,0,0,0,0,0,0],"id":11,"left_children":[1,3,5,7,9,11,13,15,17,19,21,23,25,27,29,31,33,35,37,39,41,43,45,47,49,51,53,55,57,59,-1,-1,-1,-1,-1,-1,-1,-1,-1,-1,-1,-1,-1,-1,-1,-1,-1,-1,-1,-1,-1,-1,-1,-1,-1,-1,-1,-1,-1,-1,-1],"loss_changes":[5.2560187E2,2.580116E2,8.118973E1,5.326587E1,9.8423996E1,7.017759E1,5.6473694E0,1.6821106E1,2.119692E1,3.872966E1,2.3812027E1,5.63163E1,2.2970085E1,9.802444E0,6.553955E-1,4.694214E-1,2.6139252E1,9.111521E0,1.3721793E1,1.9777252E1,1.5186032E1,2.508706E1,3.5159302E0,1.018029E1,1.8803276E1,2.3830643E1,2.6834412E0,1.3032232E1,2.1805E0,3.3868866E0,0E0,0E0,0E0,0E0,0E0,0E0,0E0,0E0,0E0,0E0,0E0,0E0,0E0,0E0,0E0,0E0,0E0,0E0,0E0,0E0,0E0,0E0,0E0,0E0,0E0,0E0,0E0,0E0,0E0,0E0,0E0],"parents":[2147483647,0,0,1,1,2,2,3,3,4,4,5,5,6,6,7,7,8,8,9,9,10,10,11,11,12,12,13,13,14,14,15,15,16,16,17,17,18,18,19,19,20,20,21,21,22,22,23,23,24,24,25,25,26,26,27,27,28,28,29,29],"right_children":[2,4,6,8,10,12,14,16,18,20,22,24,26,28,30,32,34,36,38,40,42,44,46,48,50,52,54,56,58,60,-1,-1,-1,-1,-1,-1,-1,-1,-1,-1,-1,-1,-1,-1,-1,-1,-1,-1,-1,-1,-1,-1,-1,-1,-1,-1,-1,-1,-1,-1,-1],"split_conditions":[2.4250902E1,4.493578E1,3.3251316E1,2.5310791E1,1.2215454E1,1.18916645E1,7.7753563E0,1.626919E1,1.3367596E1,6.871406E1,1.2286549E1,3.6973587E1,3.1940182E1,2.9985352E1,4.4386913E1,2.0217878E1,8.099869E1,3.6306793E1,1.0346257E2,4.9840477E1,1.4707437E1,5.5080204E1,1.1739611E2,4.9840477E1,1.0040483E2,7.346073E1,1.1688162E1,9.054391E1,4.2080105E1,2.8546694E1,6.3031435E-2,-1.06048934E-1,-9.176785E-2,-3.6813743E-2,-1.0181345E-1,-8.931884E-2,5.346715E-3,4.83741E-2,-3.9207146E-2,-1.1855754E-2,-8.7918386E-2,-2.9890036E-2,5.1576834E-2,-5.0823845E-2,3.211756E-2,6.0616013E-2,3.0347833E-2,-3.3148352E-2,-1.0063868E-1,5.28112E-2,-3.1321254E-2,5.4683197E-2,-3.5404548E-2,1.4038253E-2,5.99643E-2,5.2709546E-2,-4.038753E-2,3.22869E-2,6.1250973E-2,2.2946132E-2,6.044786E-2],"split_indices":[2,1,1,0,0,0,0,0,2,1,2,2,2,2,1,2,3,1,3,3,2,1,3,3,3,3,1,3,1,2,0,0,0,0,0,0,0,0,0,0,0,0,0,0,0,0,0,0,0,0,0,0,0,0,0,0,0,0,0,0,0],"split_type":[0,0,0,0,0,0,0,0,0,0,0,0,0,0,0,0,0,0,0,0,0,0,0,0,0,0,0,0,0,0,0,0,0,0,0,0,0,0,0,0,0,0,0,0,0,0,0,0,0,0,0,0,0,0,0,0,0,0,0,0,0],"sum_hessian":[3.0895894E3,1.4935011E3,1.5960881E3,8.131926E2,6.803085E2,5.649209E2,1.0311672E3,6.84683E2,1.285097E2,2.732207E2,4.0708774E2,2.2255331E2,3.4236758E2,2.2473787E2,8.064294E2,4.3459213E2,2.5009082E2,5.515509E1,7.3354614E1,1.8362408E2,8.959662E1,1.6356264E2,2.4352512E2,1.1479044E2,1.0776288E2,1.18360374E2,2.240072E2,5.8194477E1,1.665434E2,1.9065363E2,6.1577576E2,3.393028E2,9.528935E1,1.2405048E2,1.2604034E2,4.1979687E1,1.3175404E1,4.501542E1,2.8339191E1,4.580895E1,1.3781512E2,4.4859188E1,4.4737427E1,5.3242126E1,1.1032051E2,1.914856E2,5.2039524E1,3.2326057E1,8.2464386E1,6.3422955E1,4.433992E1,4.983263E1,6.852775E1,1.4297377E1,2.0970982E2,2.970792E1,2.8486555E1,3.726297E1,1.2928043E2,3.027001E1,1.603836E2],"tree_param":{"num_deleted":"0","num_feature":"4","num_nodes":"61","size_leaf_vector":"1"}},{"base_weights":[-2.2382243E-3,7.901939E-1,-4.095851E-1,1.479196E0,-9.798396E-2,5.284051E-1,-4.7374815E-1,-1.9207886E-1,1.8692014E0,1.0766187E0,-4.8313003E-2,1.8333571E0,-4.167268E-2,-7.27382E-2,-4.9983002E-2,6.395411E-2,-4.415291E-2,2.0900316E0,-3.584812E-2,-1.6404948E-1,2.2130575E0,3.6242792E-1,-3.1025827E-2,9.830215E-2,-4.307201E-2,2.463424E-1,1.3517852E-1,2.4225544E-2,-3.5733685E-2,3.1726524E-1,1.4795355E-2],"categories":[],"categories_nodes":[],"categories_segments":[],"categories_sizes":[],"default_left":[0,0,0,0,0,0,0,0,0,0,0,0,0,0,0,0,0,0,0,0,0,0,0,0,0,0,0,0,0,0,0],"id":12,"left_children":[1,3,5,7,9,11,13,15,17,19,-1,21,-1,23,-1,-1,-1,25,-1,27,29,-1,-1,-1,-1,-1,-1,-1,-1,-1,-1],"loss_changes":[5.8912537E1,3.8065228E1,7.5049133E0,2.3144653E1,1.3190791E1,1.0865517E1,1.1491718E0,1.8425895E0,1.473835E1,1.0550904E1,0E0,1.5042851E1,0E0,3.481863E0,0E0,0E0,0E0,3.8420868E0,0E0,4.3097085E-1,7.140749E0,0E0,0E0,0E0,0E0,0E0,0E0,0E0,0E0,0E0,0E0],"parents":[2147483647,0,0,1,1,2,2,3,3,4,4,5,5,6,6,7,7,8,8,9,9,11,11,13,13,17,17,19,19,20,20],"right_children":[2,4,6,8,10,12,14,16,18,20,-1,22,-1,24,-1,-1,-1,26,-1,28,30,-1,-1,-1,-1,-1,-1,-1,-1,-1,-1],"split_conditions":[1.3543417E1,9.393473E0,1.2847696E1,6.56047E1,2.0539803E1,9.195884E0,3.4293208E0,2.6848032E0,4.670769E1,1.13009186E2,-4.8313003E-2,1.9516525E1,-4.167268E-2,2.4124111E1,-4.9983002E-2,6.395411E-2,-4.415291E-2,1.0010707E1,-3.584812E-2,1.3143037E1,9.139049E0,3.6242792E-1,-3.1025827E-2,9.830215E-2,-4.307201E-2,2.463424E-1,1.3517852E-1,2.4225544E-2,-3.5733685E-2,3.1726524E-1,1.4795355E-2],"split_indices":[2,0,1,3,1,0,0,0,1,3,0,2,0,1,0,0,0,2,0,1,2,0,0,0,0,0,0,0,0,0,0],"split_type":[0,0,0,0,0,0,0,0,0,0,0,0,0,0,0,0,0,0,0,0,0,0,0,0,0,0,0,0,0,0,0],"sum_hessian":[1.8050508E2,6.096567E1,1.1953941E2,3.395766E1,2.700801E1,7.19029E0,1.1234912E2,6.520994E0,2.7436666E1,6.225719E0,2.0782291E1,2.6254785E0,4.564811E0,7.0923767E0,1.05256744E2,1.1438415E0,5.3771524E0,2.5018385E1,2.4182816E0,3.385434E0,2.840285E0,1.054089E0,1.5713897E0,1.3537856E0,5.738591E0,1.5062945E1,9.95544E0,1.0096755E0,2.3757584E0,1.5730277E0,1.2672572E0],"tree_param":{"num_deleted":"0","num_feature":"4","num_nodes":"31","size_leaf_vector":"1"}},{"base_weights":[-6.1031054E-3,3.2840672E-1,-4.1028088E-1,5.5751103E-1,-1.8986584E-1,-1.6461678E-2,-5.271926E-1,6.7170244E-1,9.690336E-2,3.953447E-1,-3.789484E-1,3.96589E-1,-3.8209724E-1,-3.395221E-1,-5.7398045E-1,7.5831467E-1,4.814197E-1,4.6166283E-1,-2.6366365E-1,8.3631015E-1,-1.17814496E-1,6.464501E-2,-5.026306E-1,7.5391614E-1,-2.919957E-1,3.9660085E-2,-5.7292825E-1,-5.545032E-2,-5.605955E-1,-5.901147E-1,-4.013806E-1,6.2271543E-2,7.8667015E-2,1.3938218E-2,8.681562E-2,8.510744E-2,-7.937696E-3,5.8659434E-2,-4.3784246E-2,-3.4895606E-2,9.136348E-2,5.808512E-2,-3.736088E-2,-3.6508255E-2,4.951836E-2,-5.876077E-2,-2.2318387E-2,7.323003E-3,1.01078846E-1,-4.780866E-2,3.356502E-2,-5.328262E-2,5.375985E-2,-5.8944967E-2,1.4336562E-3,-4.6404805E-2,4.3839034E-2,-2.4346342E-2,-5.8183223E-2,-4.6816524E-2,-6.0108136E-2,-6.0318466E-3,-5.9926387E-2],"categories":[],"categories_nodes":[],"categories_segments":[],"categories_sizes":[],"default_left":[0,0,0,0,0,0,0,0,0,0,0,0,0,0,0,0,0,0,0,0,0,0,0,0,0,0,0,0,0,0,0,0,0,0,0,0,0,0,0,0,0,0,0,0,0,0,0,0,0,0,0,0,0,0,0,0,0,0,0,0,0,0,0],"id":13,"left_children":[1,3,5,7,9,11,13,15,17,19,21,23,25,27,29,31,33,35,37,39,41,43,45,47,49,51,53,55,57,59,61,-1,-1,-1,-1,-1,-1,-1,-1,-1,-1,-1,-1,-1,-1,-1,-1,-1,-1,-1,-1,-1,-1,-1,-1,-1,-1,-1,-1,-1,-1,-1,-1],"loss_changes":[3.9769785E2,1.9121338E2,6.1321274E1,5.8652496E1,5.482617E1,4.635804E1,8.8237E0,1.4375519E1,2.9443878E1,2.7514057E1,2.0550179E1,3.5688538E1,1.312554E1,1.299452E1,2.048523E0,1.8667297E0,3.7248787E1,2.3494513E1,1.6955465E1,6.3021545E0,1.0380562E1,1.5430034E1,6.815857E0,1.656855E1,5.996793E0,1.5009914E1,1.0965691E0,1.8743605E1,6.431503E-1,7.1951294E-1,4.909814E0,0E0,0E0,0E0,0E0,0E0,0E0,0E0,0E0,0E0,0E0,0E0,0E0,0E0,0E0,0E0,0E0,0E0,0E0,0E0,0E0,0E0,0E0,0E0,0E0,0E0,0E0,0E0,0E0,0E0,0E0,0E0,0E0],"parents":[2147483647,0,0,1,1,2,2,3,3,4,4,5,5,6,6,7,7,8,8,9,9,10,10,11,11,12,12,13,13,14,14,15,15,16,16,17,17,18,18,19,19,20,20,21,21,22,22,23,23,24,24,25,25,26,26,27,27,28,28,29,29,30,30],"right_children":[2,4,6,8,10,12,14,16,18,20,22,24,26,28,30,32,34,36,38,40,42,44,46,48,50,52,54,56,58,60,62,-1,-1,-1,-1,-1,-1,-1,-1,-1,-1,-1,-1,-1,-1,-1,-1,-1,-1,-1,-1,-1,-1,-1,-1,-1,-1,-1,-1,-1,-1,-1,-1],"split_conditions":[2.6317299E1,5.5080204E1,2.4696133E1,2.4009676E1,7.8894906E0,1.4241379E1,7.2205925E0,4.0444336E1,3.002802E1,1.6613363E1,8.982118E0,4.13289E1,3.2109196E1,4.6224598E1,1.3841483E2,5.884918E0,8.318605E1,1.7342197E1,7.867282E0,2.17897E1,6.213551E1,8.8371376E1,1.18607925E2,4.9840477E1,1.2465769E2,8.375211E1,1.4781438E2,8.8371376E1,2.761172E1,2.8546694E1,4.4386913E1,6.2271543E-2,7.8667015E-2,1.3938218E-2,8.681562E-2,8.510744E-2,-7.937696E-3,5.8659434E-2,-4.3784246E-2,-3.4895606E-2,9.136348E-2,5.808512E-2,-3.736088E-2,-3.6508255E-2,4.951836E-2,-5.876077E-2,-2.2318387E-2,7.323003E-3,1.01078846E-1,-4.780866E-2,3.356502E-2,-5.328262E-2,5.375985E-2,-5.8944967E-2,1.4336562E-3,-4.6404805E-2,4.3839034E-2,-2.4346342E-2,-5.8183223E-2,-4.6816524E-2,-6.0108136E-2,-6.0318466E-3,-5.9926387E-2],"split_indices":[2,1,1,0,0,0,0,1,1,2,2,2,2,1,3,0,3,2,2,3,1,3,3,3,3,3,3,3,2,2,1,0,0,0,0,0,0,0,0,0,0,0,0,0,0,0,0,0,0,0,0,0,0,0,0,0,0,0,0,0,0,0,0],"split_type":[0,0,0,0,0,0,0,0,0,0,0,0,0,0,0,0,0,0,0,0,0,0,0,0,0,0,0,0,0,0,0,0,0,0,0,0,0,0,0,0,0,0,0,0,0,0,0,0,0,0,0,0,0,0,0,0,0,0,0,0,0,0,0],"sum_hessian":[2.9395242E3,1.6084825E3,1.3310416E3,1.1153584E3,4.9312408E2,3.0495062E2,1.0260911E3,8.934106E2,2.2194785E2,1.2015462E2,3.7296948E2,1.4315117E2,1.6179947E2,2.0641167E2,8.196794E2,6.119019E2,2.8150867E2,1.101931E2,1.11754745E2,6.428437E1,5.5870255E1,8.142201E1,2.9154745E2,9.418229E1,4.8968876E1,5.0649887E1,1.1114958E2,9.08821E1,1.15529564E2,7.4739557E2,7.22838E1,1.09797554E2,5.0210437E2,1.5010934E2,1.3139932E2,6.3741993E1,4.645111E1,1.8598408E1,9.315634E1,3.7218208E0,6.0562546E1,1.4632605E1,4.1237648E1,4.0825478E1,4.0596535E1,2.2271819E2,6.882928E1,2.615616E1,6.802613E1,3.7954132E1,1.1014742E1,2.3528639E1,2.7121246E1,1.0810458E2,3.0449965E0,4.9766354E1,4.1115746E1,8.033149E0,1.07496414E2,6.527122E1,6.821243E2,2.7019352E1,4.5264446E1],"tree_param":{"num_deleted":"0","num_feature":"4","num_nodes":"63","size_leaf_vector":"1"}},{"base_weights":[6.109487E-3,-4.001361E-1,3.7090254E-1,-6.519975E-1,1.6084619E-1,5.9856575E-2,5.475697E-1,-8.349212E-1,-2.9031506E-1,-5.1593906E-1,3.6422256E-1,-2.8601158E-1,3.8971272E-1,2.8631297E-1,5.7901275E-1,-9.2526287E-1,-6.3140947E-1,1.00554235E-1,-6.4062154E-1,-8.058218E-1,5.052245E-3,5.355945E-1,2.7624262E-2,-7.403483E-1,2.5282207E-1,-2.1434972E-1,5.210526E-1,5.440049E-1,-1.17906354E-1,4.8424545E-1,6.1097104E-2,-7.7388585E-2,-9.818571E-2,-8.0454394E-2,-8.276589E-3,-4.2044815E-2,4.4894874E-2,-8.3571E-2,-9.560114E-3,3.6345653E-2,-8.833626E-2,-4.6391305E-2,5.2484047E-2,2.8752381E-2,6.0295004E-2,-5.1505487E-2,3.757875E-2,-4.119796E-2,-1.00342944E-1,4.783718E-2,-2.7271224E-2,3.353251E-2,-7.114438E-2,6.1078247E-2,2.9287457E-2,-5.2693556E-3,5.793214E-2,-5.8251627E-2,4.465116E-2,2.2947181E-2,5.970962E-2],"categories":[],"categories_nodes":[],"categories_segments":[],"categories_sizes":[],"default_left":[0,0,0,0,0,0,0,0,0,0,0,0,0,0,0,0,0,0,0,0,0,0,0,0,0,0,0,0,0,0,0,0,0,0,0,0,0,0,0,0,0,0,0,0,0,0,0,0,0,0,0,0,0,0,0,0,0,0,0,0,0],"id":14,"left_children":[1,3,5,7,9,11,13,15,17,19,21,23,25,27,29,31,33,35,37,39,41,43,45,47,49,51,53,55,57,59,-1,-1,-1,-1,-1,-1,-1,-1,-1,-1,-1,-1,-1,-1,-1,-1,-1,-1,-1,-1,-1,-1,-1,-1,-1,-1,-1,-1,-1,-1,-1],"loss_changes":[4.4532037E2,2.009775E2,8.696898E1,6.468637E1,6.0932274E1,6.566912E1,8.127869E0,1.13888855E1,4.5408623E1,1.5467447E1,1.9593704E1,6.899977E1,2.3480267E1,1.1567505E1,2.43042E0,3.0856018E0,1.9250313E1,2.8756226E1,1.8503891E1,6.2861633E0,9.408245E0,3.5894318E0,2.2060837E1,1.27826E1,1.5460496E1,1.4805909E1,4.7807007E0,1.4554844E0,1.1750121E1,6.528488E0,0E0,0E0,0E0,0E0,0E0,0E0,0E0,0E0,0E0,0E0,0E0,0E0,0E0,0E0,0E0,0E0,0E0,0E0,0E0,0E0,0E0,0E0,0E0,0E0,0E0,0E0,0E0,0E0,0E0,0E0,0E0],"parents":[2147483647,0,0,1,1,2,2,3,3,4,4,5,5,6,6,7,7,8,8,9,9,10,10,11,11,12,12,13,13,14,14,15,15,16,16,17,17,18,18,19,19,20,20,21,21,22,22,23,23,24,24,25,25,26,26,27,27,28,28,29,29],"right_children":[2,4,6,8,10,12,14,16,18,20,22,24,26,28,30,32,34,36,38,40,42,44,46,48,50,52,54,56,58,60,-1,-1,-1,-1,-1,-1,-1,-1,-1,-1,-1,-1,-1,-1,-1,-1,-1,-1,-1,-1,-1,-1,-1,-1,-1,-1,-1,-1,-1,-1,-1],"split_conditions":[2.3350168E1,5.5080204E1,3.3251316E1,1.9605509E1,7.8894906E0,3.5282192E1,4.758849E0,1.7636086E1,7.904499E1,1.6613363E1,1.04006676E2,1.6468178E1,6.542411E0,9.5004295E1,4.493578E1,4.9336258E1,4.3124054E1,2.661562E1,4.01836E1,2.17897E1,6.871406E1,8.788936E0,1.626919E1,7.396301E1,1.0923034E2,8.8371376E1,1.1350111E2,2.4042578E1,3.441247E1,3.1244862E1,6.1097104E-2,-7.7388585E-2,-9.818571E-2,-8.0454394E-2,-8.276589E-3,-4.2044815E-2,4.4894874E-2,-8.3571E-2,-9.560114E-3,3.6345653E-2,-8.833626E-2,-4.6391305E-2,5.2484047E-2,2.8752381E-2,6.0295004E-2,-5.1505487E-2,3.757875E-2,-4.119796E-2,-1.00342944E-1,4.783718E-2,-2.7271224E-2,3.353251E-2,-7.114438E-2,6.1078247E-2,2.9287457E-2,-5.2693556E-3,5.793214E-2,-5.8251627E-2,4.465116E-2,2.2947181E-2,5.970962E-2],"split_indices":[2,1,1,0,0,2,0,2,3,2,3,0,0,3,1,3,1,1,1,3,1,2,0,3,3,3,3,2,2,2,0,0,0,0,0,0,0,0,0,0,0,0,0,0,0,0,0,0,0,0,0,0,0,0,0,0,0,0,0,0,0],"split_type":[0,0,0,0,0,0,0,0,0,0,0,0,0,0,0,0,0,0,0,0,0,0,0,0,0,0,0,0,0,0,0,0,0,0,0,0,0,0,0,0,0,0,0,0,0,0,0,0,0,0,0,0,0,0,0,0,0,0,0,0,0],"sum_hessian":[3.0029492E3,1.4207065E3,1.5822428E3,9.8038556E2,4.40321E2,5.7363E2,1.00861273E3,6.502223E2,3.3016324E2,1.01388565E2,3.3893243E2,2.8008353E2,2.935465E2,1.0943505E2,8.991777E2,4.478631E2,2.0235919E2,1.5638406E2,1.7377919E2,6.479148E1,3.6597084E1,2.2419635E2,1.1473609E2,1.5175333E2,1.2833018E2,5.231335E1,2.4123315E2,6.661917E1,4.2815884E1,2.3083247E2,6.683452E2,1.25868164E2,3.2199493E2,1.5346432E2,4.8894882E1,6.2585106E1,9.379896E1,1.2757922E2,4.619997E1,3.8001242E0,6.0991356E1,1.9295618E1,1.7301466E1,4.8999523E1,1.7519682E2,4.4654358E1,7.0081726E1,6.864234E1,8.3110985E1,8.985556E1,3.8474625E1,2.4997328E1,2.7316023E1,1.7194135E2,6.929181E1,3.695129E0,6.2924038E1,2.3466764E1,1.934912E1,7.179052E1,1.5904196E2],"tree_param":{"num_deleted":"0","num_feature":"4","num_nodes":"61","size_leaf_vector":"1"}},{"base_weights":[4.2873695E-3,6.36932E-1,-4.6067196E-1,1.3011069E0,-1.7763089E-1,6.86903E-2,-4.7987914E-1,4.219193E-2,1.7159965E0,7.380103E-1,-4.8668668E-2,-2.530841E-1,-4.9890827E-2,9.0696645E-1,-4.529601E-2,1.968832E0,-1.8068981E-1,-2.4077675E-1,1.7930942E0,5.1399793E-2,-4.4611275E-2,1.5284443E-1,-3.088068E-2,1.4404829E-1,2.2706755E-1,2.4040254E-2,-3.6569566E-2,2.153963E-2,-3.963401E-2,2.650381E-1,-2.8378839E-2],"categories":[],"categories_nodes":[],"categories_segments":[],"categories_sizes":[],"default_left":[0,0,0,0,0,0,0,0,0,0,0,0,0,0,0,0,0,0,0,0,0,0,0,0,0,0,0,0,0,0,0],"id":15,"left_children":[1,3,5,7,9,-1,11,13,15,17,-1,19,-1,21,-1,23,25,27,29,-1,-1,-1,-1,-1,-1,-1,-1,-1,-1,-1,-1],"loss_changes":[5.230268E1,4.097938E1,2.5887012E0,2.1660622E1,1.0181336E1,0E0,3.1131935E-1,5.2661257E0,1.5351433E1,9.887531E0,0E0,1.6919684E0,0E0,3.8430984E0,0E0,1.1429062E0,4.4581443E-1,4.8500562E-1,8.808519E0,0E0,0E0,0E0,0E0,0E0,0E0,0E0,0E0,0E0,0E0,0E0,0E0],"parents":[2147483647,0,0,1,1,2,2,3,3,4,4,6,6,7,7,8,8,9,9,11,11,13,13,15,15,16,16,17,17,18,18],"right_children":[2,4,6,8,10,-1,12,14,16,18,-1,20,-1,22,-1,24,26,28,30,-1,-1,-1,-1,-1,-1,-1,-1,-1,-1,-1,-1],"split_conditions":[1.6270437E1,9.393473E0,2.234123E0,7.396301E1,2.0539803E1,6.86903E-2,1.8691336E1,1.991247E1,4.2577892E1,1.13009186E2,-4.8668668E-2,5.3043017E0,-4.9890827E-2,4.862848E0,-4.529601E-2,1.0817996E2,3.6781638E0,1.2486037E1,1.8225185E1,5.1399793E-2,-4.4611275E-2,1.5284443E-1,-3.088068E-2,1.4404829E-1,2.2706755E-1,2.4040254E-2,-3.6569566E-2,2.153963E-2,-3.963401E-2,2.650381E-1,-2.8378839E-2],"split_indices":[2,0,0,3,1,0,2,1,1,3,0,0,0,0,0,3,0,0,0,0,0,0,0,0,0,0,0,0,0,0,0],"split_type":[0,0,0,0,0,0,0,0,0,0,0,0,0,0,0,0,0,0,0,0,0,0,0,0,0,0,0,0,0,0,0],"sum_hessian":[1.7580963E2,7.431857E1,1.01491066E2,4.0609367E1,3.37092E1,1.098457E0,1.0039261E2,1.0339011E1,3.0270355E1,8.156361E0,2.5552843E1,8.878296E0,9.151431E1,3.461634E0,6.8773775E0,2.667627E1,3.5940866E0,4.6315384E0,3.5248218E0,1.450662E0,7.4276333E0,2.1204998E0,1.3411341E0,1.1797726E1,1.4878543E1,1.0056628E0,2.588424E0,1.0799828E0,3.5515556E0,2.299507E0,1.225315E0],"tree_param":{"num_deleted":"0","num_feature":"4","num_nodes":"31","size_leaf_vector":"1"}},{"base_weights":[-6.447102E-3,2.7453175E-1,-4.277834E-1,5.522006E-1,-8.107615E-2,-7.333679E-2,-5.3531194E-1,6.392665E-1,7.038787E-2,2.9243937E-1,-3.492434E-1,3.239288E-1,-4.6097666E-1,-3.7289312E-1,-5.7535243E-1,7.2247046E-1,4.952536E-1,6.027585E-1,-2.5228614E-1,5.9057474E-1,-1.2965602E-1,-2.0063953E-2,-5.3062654E-1,6.096607E-1,-4.0102664E-1,-1.162325E-1,-5.596044E-1,-7.097431E-2,-5.543227E-1,-5.8744264E-1,-4.0346992E-1,4.7599595E-2,7.8818075E-2,7.787787E-2,1.0857311E-2,-1.3086112E-2,7.815822E-2,3.825911E-2,-4.7235638E-2,8.0312796E-2,1.3101633E-2,2.147753E-2,-5.5191677E-2,3.0745793E-2,-4.2789858E-2,-5.825187E-2,-3.4986388E-2,9.821607E-3,9.827991E-2,-5.733649E-2,1.3569452E-2,3.6170866E-2,-5.4237146E-2,-5.7696342E-2,2.2140495E-3,5.664832E-2,-3.3674113E-2,-2.73175E-2,-5.7540026E-2,-5.148051E-2,-5.9586313E-2,3.4972907E-3,-5.885753E-2],"categories":[],"categories_nodes":[],"categories_segments":[],"categories_sizes":[],"default_left":[0,0,0,0,0,0,0,0,0,0,0,0,0,0,0,0,0,0,0,0,0,0,0,0,0,0,0,0,0,0,0,0,0,0,0,0,0,0,0,0,0,0,0,0,0,0,0,0,0,0,0,0,0,0,0,0,0,0,0,0,0,0,0],"id":16,"left_children":[1,3,5,7,9,11,13,15,17,19,21,23,25,27,29,31,33,35,37,39,41,43,45,47,49,51,53,55,57,59,61,-1,-1,-1,-1,-1,-1,-1,-1,-1,-1,-1,-1,-1,-1,-1,-1,-1,-1,-1,-1,-1,-1,-1,-1,-1,-1,-1,-1,-1,-1,-1,-1],"loss_changes":[3.3792416E2,1.6913387E2,4.348491E1,4.029904E1,7.539765E1,4.1260468E1,5.4824677E0,9.400848E0,2.5629894E1,3.967847E1,2.6142551E1,2.7676744E1,4.543186E0,9.6064E0,1.2195587E0,7.949646E0,3.2959877E1,7.483677E0,1.3181318E1,1.7927567E1,1.9183777E1,2.105622E1,2.4448776E0,1.8107391E1,3.5966897E0,6.593617E0,1.0743332E0,1.1582964E1,4.9375534E-1,9.2437744E-2,4.018096E0,0E0,0E0,0E0,0E0,0E0,0E0,0E0,0E0,0E0,0E0,0E0,0E0,0E0,0E0,0E0,0E0,0E0,0E0,0E0,0E0,0E0,0E0,0E0,0E0,0E0,0E0,0E0,0E0,0E0,0E0,0E0,0E0],"parents":[2147483647,0,0,1,1,2,2,3,3,4,4,5,5,6,6,7,7,8,8,9,9,10,10,11,11,12,12,13,13,14,14,15,15,16,16,17,17,18,18,19,19,20,20,21,21,22,22,23,23,24,24,25,25,26,26,27,27,28,28,29,29,30,30],"right_children":[2,4,6,8,10,12,14,16,18,20,22,24,26,28,30,32,34,36,38,40,42,44,46,48,50,52,54,56,58,60,62,-1,-1,-1,-1,-1,-1,-1,-1,-1,-1,-1,-1,-1,-1,-1,-1,-1,-1,-1,-1,-1,-1,-1,-1,-1,-1,-1,-1,-1,-1,-1,-1],"split_conditions":[2.8344784E1,4.493578E1,2.4696133E1,2.5310791E1,1.2215454E1,1.4241379E1,7.2205925E0,1.626919E1,1.3367596E1,1.7832571E1,1.2286549E1,4.3100483E1,3.2109196E1,4.2080105E1,1.4050117E2,1.0168603E1,1.7832571E1,3.9463726E1,1.6440788E1,6.871406E1,6.297772E1,2.132315E1,1.1739611E2,7.1779396E1,1.18607925E2,2.177176E1,1.4781438E2,3.4769127E1,2.9646196E1,3.0281576E1,3.441247E1,4.7599595E-2,7.8818075E-2,7.787787E-2,1.0857311E-2,-1.3086112E-2,7.815822E-2,3.825911E-2,-4.7235638E-2,8.0312796E-2,1.3101633E-2,2.147753E-2,-5.5191677E-2,3.0745793E-2,-4.2789858E-2,-5.825187E-2,-3.4986388E-2,9.821607E-3,9.827991E-2,-5.733649E-2,1.3569452E-2,3.6170866E-2,-5.4237146E-2,-5.7696342E-2,2.2140495E-3,5.664832E-2,-3.3674113E-2,-2.73175E-2,-5.7540026E-2,-5.148051E-2,-5.9586313E-2,3.4972907E-3,-5.885753E-2],"split_indices":[2,1,1,0,0,0,0,0,2,2,2,2,2,1,3,2,2,3,1,1,1,0,3,3,3,0,3,2,2,1,2,0,0,0,0,0,0,0,0,0,0,0,0,0,0,0,0,0,0,0,0,0,0,0,0,0,0,0,0,0,0,0,0],"split_type":[0,0,0,0,0,0,0,0,0,0,0,0,0,0,0,0,0,0,0,0,0,0,0,0,0,0,0,0,0,0,0,0,0,0,0,0,0,0,0,0,0,0,0,0,0,0,0,0,0,0,0,0,0,0,0,0,0,0,0,0,0,0,0],"sum_hessian":[2.8524204E3,1.7114468E3,1.1409735E3,9.607291E2,7.507177E2,2.6596246E2,8.7501105E2,8.1341437E2,1.4731471E2,3.1369647E2,4.3702124E2,1.3143158E2,1.3453088E2,1.7509103E2,6.9992E2,5.1300653E2,3.0040784E2,5.5265583E1,9.204913E1,1.836097E2,1.3008679E2,1.5565129E2,2.8136993E2,9.438857E1,3.7043007E1,3.0410898E1,1.0411999E2,6.6244354E1,1.0884667E2,6.516642E2,4.825583E1,1.097156E2,4.0329095E2,1.7273769E2,1.27670166E2,1.0883694E1,4.438189E1,2.3504082E1,6.854505E1,1.2503253E2,5.857716E1,7.191679E1,5.817E1,8.646195E1,6.918934E1,2.1688531E2,6.448463E1,4.0348225E1,5.4040348E1,2.7987951E1,9.055055E0,1.440547E1,1.6005428E1,1.0111109E2,3.0088923E0,1.9158957E1,4.70854E1,8.564691E0,1.0028198E2,7.415099E1,5.775132E2,1.4565909E1,3.368992E1],"tree_param":{"num_deleted":"0","num_feature":"4","num_nodes":"63","size_leaf_vector":"1"}},{"base_weights":[6.0643973E-3,-3.5098878E-1,3.7128016E-1,-6.585554E-1,3.2678626E-2,6.355863E-2,5.252516E-1,-7.540695E-1,-1.4972304E-1,-3.7012538E-1,3.209221E-1,-2.769726E-1,3.8167444E-1,3.4788314E-1,5.7538354E-1,-8.628892E-1,-5.670713E-1,-6.1402375E-1,1.4646044E-1,-5.9619266E-1,1.1241722E-1,4.3047562E-2,5.1841724E-1,-7.8867173E-1,1.24590196E-1,7.326971E-2,5.780946E-1,2.9047545E-2,5.558833E-1,4.2024362E-1,5.9221995E-1,-8.859693E-2,-7.370663E-2,-8.594501E-2,-2.6910871E-2,-8.006021E-2,-8.569701E-5,-4.863037E-2,4.001377E-2,-7.947751E-3,-7.5635225E-2,5.0133843E-2,-2.5011886E-2,3.2936715E-2,-4.0785495E-2,5.8411E-2,2.8467968E-2,-9.028341E-3,-8.557305E-2,5.0691392E-2,-2.7212655E-2,3.316159E-2,-5.7365835E-2,5.9020456E-2,-3.7875408E-4,-5.6738496E-2,4.017434E-2,5.9044767E-2,1.9848172E-2,-3.0732078E-3,5.3440034E-2,5.9755653E-2,4.5451373E-2],"categories":[],"categories_nodes":[],"categories_segments":[],"categories_sizes":[],"default_left":[0,0,0,0,0,0,0,0,0,0,0,0,0,0,0,0,0,0,0,0,0,0,0,0,0,0,0,0,0,0,0,0,0,0,0,0,0,0,0,0,0,0,0,0,0,0,0,0,0,0,0,0,0,0,0,0,0,0,0,0,0,0,0],"id":17,"left_children":[1,3,5,7,9,11,13,15,17,19,21,23,25,27,29,31,33,35,37,39,41,43,45,47,49,51,53,55,57,59,61,-1,-1,-1,-1,-1,-1,-1,-1,-1,-1,-1,-1,-1,-1,-1,-1,-1,-1,-1,-1,-1,-1,-1,-1,-1,-1,-1,-1,-1,-1,-1,-1],"loss_changes":[3.794025E2,1.736277E2,6.811374E1,3.9575867E1,7.6233734E1,5.219007E1,8.322632E0,1.3496979E1,1.8010256E1,2.994688E1,2.0977524E1,4.7933525E1,1.5041428E1,1.4158876E1,1.6990356E0,6.031494E-1,2.20495E1,5.8276024E0,1.3094997E1,1.5389122E1,1.2565096E1,2.079948E1,3.2669106E0,4.7230415E0,2.0052788E1,1.657386E1,1.0731316E0,1.9220963E1,1.4800987E0,3.9523544E0,2.2099304E-1,0E0,0E0,0E0,0E0,0E0,0E0,0E0,0E0,0E0,0E0,0E0,0E0,0E0,0E0,0E0,0E0,0E0,0E0,0E0,0E0,0E0,0E0,0E0,0E0,0E0,0E0,0E0,0E0,0E0,0E0,0E0,0E0],"parents":[2147483647,0,0,1,1,2,2,3,3,4,4,5,5,6,6,7,7,8,8,9,9,10,10,11,11,12,12,13,13,14,14,15,15,16,16,17,17,18,18,19,19,20,20,21,21,22,22,23,23,24,24,25,25,26,26,27,27,28,28,29,29,30,30],"right_children":[2,4,6,8,10,12,14,16,18,20,22,24,26,28,30,32,34,36,38,40,42,44,46,48,50,52,54,56,58,60,62,-1,-1,-1,-1,-1,-1,-1,-1,-1,-1,-1,-1,-1,-1,-1,-1,-1,-1,-1,-1,-1,-1,-1,-1,-1,-1,-1,-1,-1,-1,-1,-1],"split_conditions":[2.4250902E1,4.493578E1,3.085219E1,2.5310791E1,1.2215454E1,1.4241379E1,2.9646196E1,1.626919E1,1.2454102E1,6.871406E1,1.2286549E1,3.509673E1,3.2109196E1,1.113806E1,4.758849E0,3.9917355E1,1.3720434E1,3.6306793E1,1.6440788E1,4.837364E1,8.211067E1,9.997691E1,1.1739611E2,2.3542215E1,8.8371376E1,1.10414536E2,1.4781438E2,4.6224598E1,1.3841483E2,3.8529404E1,1.4427493E2,-8.859693E-2,-7.370663E-2,-8.594501E-2,-2.6910871E-2,-8.006021E-2,-8.569701E-5,-4.863037E-2,4.001377E-2,-7.947751E-3,-7.5635225E-2,5.0133843E-2,-2.5011886E-2,3.2936715E-2,-4.0785495E-2,5.8411E-2,2.8467968E-2,-9.028341E-3,-8.557305E-2,5.0691392E-2,-2.7212655E-2,3.316159E-2,-5.7365835E-2,5.9020456E-2,-3.7875408E-4,-5.6738496E-2,4.017434E-2,5.9044767E-2,1.9848172E-2,-3.0732078E-3,5.3440034E-2,5.9755653E-2,4.5451373E-2],"split_indices":[2,1,1,0,0,0,2,0,2,1,2,2,2,0,0,1,2,1,1,3,3,3,3,3,3,3,3,1,3,1,3,0,0,0,0,0,0,0,0,0,0,0,0,0,0,0,0,0,0,0,0,0,0,0,0,0,0,0,0,0,0,0,0],"split_type":[0,0,0,0,0,0,0,0,0,0,0,0,0,0,0,0,0,0,0,0,0,0,0,0,0,0,0,0,0,0,0,0,0,0,0,0,0,0,0,0,0,0,0,0,0,0,0,0,0,0,0,0,0,0,0,0,0,0,0,0,0,0,0],"sum_hessian":[2.9074968E3,1.4701974E3,1.4372994E3,8.15631E2,6.545664E2,4.7980072E2,9.574987E2,6.863186E2,1.293124E2,2.729083E2,3.8165808E2,2.3179842E2,2.480023E2,2.127437E2,7.4475507E2,4.3156433E2,2.5475426E2,4.9944965E1,7.936743E1,1.8568219E2,8.722611E1,1.590681E2,2.2258997E2,1.0149827E2,1.3030014E2,9.702839E1,1.5097392E2,8.444333E1,1.2830035E2,7.545274E1,6.693023E2,3.5956635E2,7.199801E1,1.2763081E2,1.2712345E2,3.8058575E1,1.188639E1,2.2450537E1,5.6916897E1,4.4289467E1,1.4139273E2,4.1897007E1,4.5329105E1,9.745468E1,6.1613426E1,1.7258528E2,5.000468E1,9.097539E0,9.2400734E1,6.6212296E1,6.408785E1,6.968684E1,2.7341553E1,1.4788194E2,3.0919743E0,3.227332E1,5.2170013E1,1.16392E2,1.1908363E1,1.5389068E1,6.0063675E1,6.4111755E2,2.8184715E1],"tree_param":{"num_deleted":"0","num_feature":"4","num_nodes":"63","size_leaf_vector":"1"}},{"base_weights":[1.1069884E-2,5.930456E-1,-4.5731142E-1,1.1621424E0,-1.7008984E-1,6.54272E-2,-4.7783133E-1,8.710499E-2,1.515157E0,6.7801595E-1,-4.853962E-2,-2.4419996E-1,-4.982109E-2,8.647064E-1,-4.5107633E-2,1.6881928E0,-3.6651213E-2,1.5574296E0,-2.4248108E-1,4.8641473E-2,-4.428796E-2,1.530089E-1,-5.5386317E-3,1.3921201E-1,2.2315906E-1,-2.781024E-2,2.2169907E-1,-3.969736E-2,2.1018323E-2],"categories":[],"categories_nodes":[],"categories_segments":[],"categories_sizes":[],"default_left":[0,0,0,0,0,0,0,0,0,0,0,0,0,0,0,0,0,0,0,0,0,0,0,0,0,0,0,0,0],"id":18,"left_children":[1,3,5,7,9,-1,11,13,15,17,-1,19,-1,21,-1,23,-1,25,27,-1,-1,-1,-1,-1,-1,-1,-1,-1,-1],"loss_changes":[4.7078068E1,3.364164E1,2.4956627E0,1.6656967E1,9.359064E0,0E0,3.2851982E-1,5.410648E0,1.1442291E1,8.123668E0,0E0,1.60128E0,0E0,3.298745E0,0E0,1.8198471E0,0E0,6.7041473E0,4.7090486E-1,0E0,0E0,0E0,0E0,0E0,0E0,0E0,0E0,0E0,0E0],"parents":[2147483647,0,0,1,1,2,2,3,3,4,4,6,6,7,7,8,8,9,9,11,11,13,13,15,15,17,17,18,18],"right_children":[2,4,6,8,10,-1,12,14,16,18,-1,20,-1,22,-1,24,-1,26,28,-1,-1,-1,-1,-1,-1,-1,-1,-1,-1],"split_conditions":[1.6270437E1,9.393473E0,2.234123E0,7.756949E1,2.0539803E1,6.54272E-2,1.8691336E1,1.991247E1,4.670769E1,9.3167715E0,-4.853962E-2,5.3043017E0,-4.982109E-2,7.3685765E0,-4.5107633E-2,1.3079924E2,-3.6651213E-2,9.3301155E1,1.2853854E2,4.8641473E-2,-4.428796E-2,1.530089E-1,-5.5386317E-3,1.3921201E-1,2.2315906E-1,-2.781024E-2,2.2169907E-1,-3.969736E-2,2.1018323E-2],"split_indices":[2,0,0,3,1,0,2,1,1,2,0,0,0,2,0,3,0,3,3,0,0,0,0,0,0,0,0,0,0],"split_type":[0,0,0,0,0,0,0,0,0,0,0,0,0,0,0,0,0,0,0,0,0,0,0,0,0,0,0,0,0],"sum_hessian":[1.7071376E2,7.600698E1,9.470677E1,4.323917E1,3.2767815E1,1.1568037E0,9.354997E1,1.0996923E1,3.2242245E1,8.568924E0,2.4198889E1,8.5472145E0,8.5002754E1,4.2498E0,6.7471232E0,2.9621147E1,2.6210997E0,4.0283875E0,4.540537E0,1.5177346E0,7.0294795E0,2.0815299E0,2.1682703E0,2.147971E1,8.141437E0,1.217761E0,2.8106263E0,3.4769104E0,1.0636266E0],"tree_param":{"num_deleted":"0","num_feature":"4","num_nodes":"29","size_leaf_vector":"1"}},{"base_weights":[-6.664417E-3,2.5130904E-1,-4.1248643E-1,4.405165E-1,-2.0082216E-1,-6.643132E-2,-5.214732E-1,5.843004E-1,1.5494032E-1,1.3169602E-1,-4.4695377E-1,2.9989278E-1,-4.438848E-1,-3.8927954E-1,-5.7418925E-1,3.2829717E-1,6.2748265E-1,5.263931E-1,-1.09899186E-1,4.9337292E-1,-2.6905948E-1,-6.956099E-2,-5.4878306E-1,5.420678E-1,-4.4492805E-1,-1.10057086E-1,-5.455526E-1,-1.5867977E-1,-5.640691E-1,-5.8272637E-2,-4.2773566E-1,6.7120194E-2,-1.2940017E-2,2.8589288E-2,6.4811565E-2,7.9568304E-2,9.7314725E-3,4.8207138E-2,-3.7224177E-2,-3.142286E-3,7.844585E-2,-5.382372E-2,1.4705387E-2,-4.3950967E-2,4.725988E-2,-5.640362E-2,-1.8656751E-2,6.8106703E-3,8.792009E-2,-5.3996444E-2,1.298511E-2,3.4352247E-2,-5.3027105E-2,-5.638435E-2,2.0951002E-3,4.5434114E-2,-4.0191066E-2,-4.650878E-2,-5.8509585E-2,-4.175143E-3,-5.7025757E-2],"categories":[],"categories_nodes":[],"categories_segments":[],"categories_sizes":[],"default_left":[0,0,0,0,0,0,0,0,0,0,0,0,0,0,0,0,0,0,0,0,0,0,0,0,0,0,0,0,0,0,0,0,0,0,0,0,0,0,0,0,0,0,0,0,0,0,0,0,0,0,0,0,0,0,0,0,0,0,0,0,0],"id":19,"left_children":[1,3,5,7,9,11,13,15,17,19,21,23,25,27,29,31,33,35,37,39,41,43,45,47,49,51,53,55,57,-1,59,-1,-1,-1,-1,-1,-1,-1,-1,-1,-1,-1,-1,-1,-1,-1,-1,-1,-1,-1,-1,-1,-1,-1,-1,-1,-1,-1,-1,-1,-1],"loss_changes":[2.8905692E2,1.4449303E2,4.043509E1,4.8786163E1,4.0872986E1,3.5827065E1,5.4621124E0,8.542267E0,3.9406033E1,3.0990059E1,1.0983265E1,2.3979013E1,4.268776E0,9.410946E0,4.7738647E-1,1.8342247E1,4.5794373E0,1.9178806E1,3.657012E1,1.7172691E1,1.1463336E1,1.2660369E1,1.1417923E0,1.5880823E1,1.8639793E0,6.0962033E0,1.0222626E0,1.55433655E1,6.111145E-3,0E0,1.9440403E0,0E0,0E0,0E0,0E0,0E0,0E0,0E0,0E0,0E0,0E0,0E0,0E0,0E0,0E0,0E0,0E0,0E0,0E0,0E0,0E0,0E0,0E0,0E0,0E0,0E0,0E0,0E0,0E0,0E0,0E0],"parents":[2147483647,0,0,1,1,2,2,3,3,4,4,5,5,6,6,7,7,8,8,9,9,10,10,11,11,12,12,13,13,14,14,15,15,16,16,17,17,18,18,19,19,20,20,21,21,22,22,23,23,24,24,25,25,26,26,27,27,28,28,30,30],"right_children":[2,4,6,8,10,12,14,16,18,20,22,24,26,28,30,32,34,36,38,40,42,44,46,48,50,52,54,56,58,-1,60,-1,-1,-1,-1,-1,-1,-1,-1,-1,-1,-1,-1,-1,-1,-1,-1,-1,-1,-1,-1,-1,-1,-1,-1,-1,-1,-1,-1,-1,-1],"split_conditions":[2.8344784E1,5.5080204E1,2.4696133E1,1.9605509E1,1.178854E1,1.4241379E1,9.719133E0,3.1071629E1,1.3720434E1,1.6450203E1,8.788936E0,4.3969517E1,3.2109196E1,4.493578E1,1.4160683E2,3.5735123E1,1.2847696E1,3.5735123E1,2.1364891E1,5.933701E1,1.054187E2,1.04934425E2,1.432386E2,7.1779396E1,1.3079924E2,2.177176E1,1.4781438E2,3.441247E1,5.1541237E1,-5.8272637E-2,3.7955494E1,6.7120194E-2,-1.2940017E-2,2.8589288E-2,6.4811565E-2,7.9568304E-2,9.7314725E-3,4.8207138E-2,-3.7224177E-2,-3.142286E-3,7.844585E-2,-5.382372E-2,1.4705387E-2,-4.3950967E-2,4.725988E-2,-5.640362E-2,-1.8656751E-2,6.8106703E-3,8.792009E-2,-5.3996444E-2,1.298511E-2,3.4352247E-2,-5.3027105E-2,-5.638435E-2,2.0951002E-3,4.5434114E-2,-4.0191066E-2,-4.650878E-2,-5.8509585E-2,-4.175143E-3,-5.7025757E-2],"split_indices":[2,1,1,0,0,0,0,3,2,2,2,2,2,1,3,1,1,1,1,3,3,3,3,3,3,0,3,2,1,0,1,0,0,0,0,0,0,0,0,0,0,0,0,0,0,0,0,0,0,0,0,0,0,0,0,0,0,0,0,0,0],"split_type":[0,0,0,0,0,0,0,0,0,0,0,0,0,0,0,0,0,0,0,0,0,0,0,0,0,0,0,0,0,0,0,0,0,0,0,0,0,0,0,0,0,0,0,0,0,0,0,0,0,0,0,0,0,0,0,0,0,0,0,0,0],"sum_hessian":[2.7590503E3,1.6870225E3,1.0720278E3,1.1893359E3,4.9768658E2,2.5714615E2,8.1488165E2,7.9035596E2,3.9897998E2,2.1189127E2,2.8579532E2,1.3060123E2,1.26544914E2,2.3470552E2,5.8017615E2,1.1531595E2,6.7504E2,1.656536E2,2.3332639E2,1.1125442E2,1.00636856E2,6.108594E1,2.2470937E2,9.876157E1,3.1839647E1,3.0028486E1,9.6516426E1,1.0201933E2,1.3268619E2,5.4540436E2,3.47718E1,6.5658455E1,4.9657494E1,3.9297928E1,6.3574207E2,1.0125284E2,6.440076E1,7.139269E1,1.619337E2,4.001099E1,7.124342E1,6.0929165E1,3.970769E1,3.6422195E1,2.4663748E1,2.1509444E2,9.614932E0,4.155009E1,5.7211483E1,2.7374073E1,4.4655747E0,1.4528697E1,1.549979E1,9.350219E1,3.014238E0,2.873354E1,7.32858E1,2.7298721E1,1.05387474E2,9.725555E0,2.5046244E1],"tree_param":{"num_deleted":"0","num_feature":"4","num_nodes":"61","size_leaf_vector":"1"}},{"base_weights":[5.876243E-3,-3.3977482E-1,3.411359E-1,-5.504994E-1,1.4815448E-1,4.9609583E-2,5.1684004E-1,-7.1228534E-1,-2.3528346E-1,-4.375326E-1,3.37156E-1,-2.5610676E-1,3.5234556E-1,2.4188283E-1,5.517551E-1,-7.8578746E-1,-4.8159274E-1,1.283843E-1,-5.6056434E-1,-6.777998E-1,6.671126E-3,5.0945896E-1,2.1005047E-2,-6.1069465E-1,2.7326193E-1,-2.1583676E-1,4.9233E-1,5.1750064E-1,-1.6059539E-1,4.6108547E-1,5.8924984E-2,-6.4998336E-2,-8.4547095E-2,-8.987534E-3,-6.949626E-2,-3.2355458E-2,4.4741895E-2,-7.312427E-2,-7.9399645E-3,-3.1749412E-2,-9.10938E-2,4.1206878E-2,-5.5013567E-2,2.681197E-2,5.8015432E-2,-4.7058936E-2,3.5550397E-2,-2.7932037E-2,-8.802196E-2,4.6995234E-2,-2.1105556E-2,2.7498994E-2,-6.2133033E-2,5.8717985E-2,2.652127E-2,-3.9322963E-3,5.537659E-2,-5.8956593E-2,3.5822965E-2,2.0634387E-2,5.6704264E-2],"categories":[],"categories_nodes":[],"categories_segments":[],"categories_sizes":[],"default_left":[0,0,0,0,0,0,0,0,0,0,0,0,0,0,0,0,0,0,0,0,0,0,0,0,0,0,0,0,0,0,0,0,0,0,0,0,0,0,0,0,0,0,0,0,0,0,0,0,0,0,0,0,0,0,0,0,0,0,0,0,0],"id":20,"left_children":[1,3,5,7,9,11,13,15,17,19,21,23,25,27,29,31,33,35,37,39,41,43,45,47,49,51,53,55,57,59,-1,-1,-1,-1,-1,-1,-1,-1,-1,-1,-1,-1,-1,-1,-1,-1,-1,-1,-1,-1,-1,-1,-1,-1,-1,-1,-1,-1,-1,-1,-1],"loss_changes":[3.2537247E2,1.4222525E2,7.298169E1,4.9081116E1,4.6391945E1,4.9799313E1,8.403061E0,1.0434174E1,3.8994865E1,1.0928825E1,1.7225052E1,5.0437325E1,2.1603836E1,1.1394902E1,2.4080048E0,3.3572693E0,1.3031551E1,2.2661203E1,1.4220928E1,5.2915344E0,8.560623E0,3.337799E0,1.8692087E1,1.4106113E1,1.0398795E1,1.0942777E1,4.5223885E0,1.2487564E0,9.605624E0,6.23135E0,0E0,0E0,0E0,0E0,0E0,0E0,0E0,0E0,0E0,0E0,0E0,0E0,0E0,0E0,0E0,0E0,0E0,0E0,0E0,0E0,0E0,0E0,0E0,0E0,0E0,0E0,0E0,0E0,0E0,0E0,0E0],"parents":[2147483647,0,0,1,1,2,2,3,3,4,4,5,5,6,6,7,7,8,8,9,9,10,10,11,11,12,12,13,13,14,14,15,15,16,16,17,17,18,18,19,19,20,20,21,21,22,22,23,23,24,24,25,25,26,26,27,27,28,28,29,29],"right_children":[2,4,6,8,10,12,14,16,18,20,22,24,26,28,30,32,34,36,38,40,42,44,46,48,50,52,54,56,58,60,-1,-1,-1,-1,-1,-1,-1,-1,-1,-1,-1,-1,-1,-1,-1,-1,-1,-1,-1,-1,-1,-1,-1,-1,-1,-1,-1,-1,-1,-1,-1],"split_conditions":[2.3350168E1,5.5080204E1,3.296471E1,1.9605509E1,7.8894906E0,3.509673E1,4.758849E0,1.88506E1,7.904499E1,1.6613363E1,1.04006676E2,1.7667538E1,6.542411E0,9.5004295E1,4.6224598E1,5.3814434E1,6.196937E1,2.661562E1,4.01836E1,6.945823E1,1.054187E2,8.788936E0,1.626919E1,7.396301E1,1.1140369E2,8.8371376E1,1.1350111E2,2.4042578E1,5.696445E1,1.113806E1,5.8924984E-2,-6.4998336E-2,-8.4547095E-2,-8.987534E-3,-6.949626E-2,-3.2355458E-2,4.4741895E-2,-7.312427E-2,-7.9399645E-3,-3.1749412E-2,-9.10938E-2,4.1206878E-2,-5.5013567E-2,2.681197E-2,5.8015432E-2,-4.7058936E-2,3.5550397E-2,-2.7932037E-2,-8.802196E-2,4.6995234E-2,-2.1105556E-2,2.7498994E-2,-6.2133033E-2,5.8717985E-2,2.652127E-2,-3.9322963E-3,5.537659E-2,-5.8956593E-2,3.5822965E-2,2.0634387E-2,5.6704264E-2],"split_indices":[2,1,1,0,0,2,0,2,3,2,3,0,0,3,1,3,3,1,1,3,3,2,0,3,3,3,3,2,1,0,0,0,0,0,0,0,0,0,0,0,0,0,0,0,0,0,0,0,0,0,0,0,0,0,0,0,0,0,0,0,0],"split_type":[0,0,0,0,0,0,0,0,0,0,0,0,0,0,0,0,0,0,0,0,0,0,0,0,0,0,0,0,0,0,0,0,0,0,0,0,0,0,0,0,0,0,0,0,0,0,0,0,0,0,0,0,0,0,0,0,0,0,0,0,0],"sum_hessian":[2.8057708E3,1.3814692E3,1.4243015E3,9.6470764E2,4.167616E2,5.3609735E2,8.8820416E2,6.3667285E2,3.280348E2,1.013569E2,3.154047E2,2.6681232E2,2.69285E2,1.00972206E2,7.8723193E2,4.8100974E2,1.5566312E2,1.5516444E2,1.7287035E2,6.54367E1,3.5920204E1,2.0374937E2,1.1165531E2,1.5969197E2,1.0712036E2,5.3122883E1,2.1616212E2,5.976158E1,4.1210625E1,2.3419656E2,5.5303534E2,1.5048517E2,3.3052457E2,5.53921E1,1.0027101E2,6.420235E1,9.0962105E1,1.2722239E2,4.564795E1,2.6635078E1,3.880162E1,2.0936665E1,1.498354E1,4.724779E1,1.5650157E2,4.5046352E1,6.660896E1,7.254097E1,8.7151E1,7.620268E1,3.0917677E1,2.417829E1,2.8944595E1,1.513636E2,6.479853E1,3.6490517E0,5.611253E1,2.2484135E1,1.872649E1,6.966229E1,1.6453427E2],"tree_param":{"num_deleted":"0","num_feature":"4","num_nodes":"61","size_leaf_vector":"1"}},{"base_weights":[1.8523501E-2,5.5896705E-1,-4.5379868E-1,9.9999297E-1,-2.7494043E-1,6.1918017E-2,-4.7569743E-1,1.2900966E0,-1.2168371E-1,-4.843938E-2,5.975173E-1,-2.3755944E-1,-4.9749576E-2,-2.3810154E-1,1.4703336E0,-4.459087E-2,5.504268E-1,1.6666876E-1,-3.7525993E-2,4.5687165E-2,-4.4015E-2,1.866835E-2,-3.987388E-2,8.6044155E-2,1.690252E-1,1.3050489E-1,-3.2481093E-2],"categories":[],"categories_nodes":[],"categories_segments":[],"categories_sizes":[],"default_left":[0,0,0,0,0,0,0,0,0,0,0,0,0,0,0,0,0,0,0,0,0,0,0,0,0,0,0],"id":21,"left_children":[1,3,5,7,9,-1,11,13,15,-1,17,19,-1,21,23,-1,25,-1,-1,-1,-1,-1,-1,-1,-1,-1,-1],"loss_changes":[4.276814E1,2.9006393E1,2.3958492E0,1.685466E1,5.3711395E0,0E0,3.3968925E-1,1.1603302E1,2.742352E0,0E0,6.6904E0,1.5109928E0,0E0,4.2727676E-1,3.466034E0,0E0,3.1821935E0,0E0,0E0,0E0,0E0,0E0,0E0,0E0,0E0,0E0,0E0],"parents":[2147483647,0,0,1,1,2,2,3,3,4,4,6,6,7,7,8,8,10,10,11,11,13,13,14,14,16,16],"right_children":[2,4,6,8,10,-1,12,14,16,-1,18,20,-1,22,24,-1,26,-1,-1,-1,-1,-1,-1,-1,-1,-1,-1],"split_conditions":[1.6270437E1,3.3251316E1,2.234123E0,1.3612689E1,1.3296921E2,6.1918017E-2,1.8691336E1,5.3814434E1,1.2796267E2,-4.843938E-2,4.758849E0,5.3043017E0,-4.9749576E-2,1.4253823E1,8.996846E1,-4.459087E-2,1.4518468E1,1.6666876E-1,-3.7525993E-2,4.5687165E-2,-4.4015E-2,1.866835E-2,-3.987388E-2,8.6044155E-2,1.690252E-1,1.3050489E-1,-3.2481093E-2],"split_indices":[2,1,0,0,3,0,2,3,3,0,0,0,0,1,3,0,1,0,0,0,0,0,0,0,0,0,0],"split_type":[0,0,0,0,0,0,0,0,0,0,0,0,0,0,0,0,0,0,0,0,0,0,0,0,0,0,0],"sum_hessian":[1.6555138E2,7.712241E1,8.842896E1,5.0313904E1,2.6808514E1,1.2231537E0,8.72058E1,3.9855713E1,1.0458191E1,2.1977184E1,4.8313303E0,8.310865E0,7.889494E1,4.170838E0,3.568487E1,7.2819467E0,3.1762445E0,1.9618026E0,2.8695276E0,1.5935198E0,6.7173457E0,1.0999678E0,3.0708702E0,1.0759228E1,2.4925646E1,1.4419386E0,1.7343059E0],"tree_param":{"num_deleted":"0","num_feature":"4","num_nodes":"27","size_leaf_vector":"1"}},{"base_weights":[-6.727502E-3,2.3194033E-1,-3.9858973E-1,3.7758207E-1,-2.6214322E-1,-6.0126994E-2,-5.091107E-1,4.588968E-1,-8.73937E-2,2.3844624E-1,-3.976105E-1,2.927759E-1,-4.217559E-1,-3.7519225E-1,-5.639695E-1,5.687494E-1,2.758193E-1,3.8312045E-1,-2.798343E-1,6.3645446E-1,-3.246801E-1,-3.1515444E-3,-5.090721E-1,5.3508705E-1,-3.7154365E-1,-7.1516894E-2,-5.3625107E-1,-1.5212338E-1,-5.532499E-1,-5.730263E-2,-4.1171235E-1,3.7392233E-2,5.9140373E-2,5.2808452E-2,-1.0032036E-2,-2.4684269E-2,6.481039E-2,2.1424644E-2,-4.925494E-2,-5.288356E-2,7.204349E-2,-5.560431E-2,8.851061E-3,2.959134E-2,-6.1860394E-2,-5.324343E-2,5.1222467E-3,1.0633269E-2,8.422807E-2,-5.5023145E-2,1.2884967E-2,3.517851E-2,-5.1362514E-2,-5.552395E-2,2.7863733E-3,-4.8607405E-2,2.673201E-2,-4.5113306E-2,-5.7538766E-2,-3.3547485E-3,-5.6396633E-2],"categories":[],"categories_nodes":[],"categories_segments":[],"categories_sizes":[],"default_left":[0,0,0,0,0,0,0,0,0,0,0,0,0,0,0,0,0,0,0,0,0,0,0,0,0,0,0,0,0,0,0,0,0,0,0,0,0,0,0,0,0,0,0,0,0,0,0,0,0,0,0,0,0,0,0,0,0,0,0,0,0],"id":22,"left_children":[1,3,5,7,9,11,13,15,17,19,21,23,25,27,29,31,33,35,37,39,41,43,45,47,49,51,53,55,57,-1,59,-1,-1,-1,-1,-1,-1,-1,-1,-1,-1,-1,-1,-1,-1,-1,-1,-1,-1,-1,-1,-1,-1,-1,-1,-1,-1,-1,-1,-1,-1],"loss_changes":[2.4936113E2,1.193384E2,3.7721603E1,4.844388E1,2.5717283E1,3.1972563E1,5.376663E0,2.1760864E1,1.7437462E1,1.83828E1,1.3089165E1,2.0625378E1,4.9207745E0,8.814344E0,5.054321E-1,2.7809143E0,3.9016785E1,9.504761E0,1.4442719E1,5.0638905E0,3.3228993E0,1.2441978E1,3.0658836E0,1.2210926E1,3.156124E0,6.0984697E0,1.0121479E0,1.425318E1,2.1213531E-2,0E0,1.9235425E0,0E0,0E0,0E0,0E0,0E0,0E0,0E0,0E0,0E0,0E0,0E0,0E0,0E0,0E0,0E0,0E0,0E0,0E0,0E0,0E0,0E0,0E0,0E0,0E0,0E0,0E0,0E0,0E0,0E0,0E0],"parents":[2147483647,0,0,1,1,2,2,3,3,4,4,5,5,6,6,7,7,8,8,9,9,10,10,11,11,12,12,13,13,14,14,15,15,16,16,17,17,18,18,19,19,20,20,21,21,22,22,23,23,24,24,25,25,26,26,27,27,28,28,30,30],"right_children":[2,4,6,8,10,12,14,16,18,20,22,24,26,28,30,32,34,36,38,40,42,44,46,48,50,52,54,56,58,-1,60,-1,-1,-1,-1,-1,-1,-1,-1,-1,-1,-1,-1,-1,-1,-1,-1,-1,-1,-1,-1,-1,-1,-1,-1,-1,-1,-1,-1,-1,-1],"split_conditions":[2.8344784E1,6.0267994E1,2.4696133E1,2.5310791E1,6.664903E0,1.3712335E1,9.719133E0,4.01836E1,2.1364891E1,1.7636086E1,8.982118E0,4.3100483E1,3.2109196E1,4.493578E1,1.4160683E2,2.5662853E1,1.8159685E1,4.7689392E1,1.100762E1,2.4586233E1,1.1140369E2,2.022208E1,1.432386E2,7.1779396E1,1.18607925E2,2.177176E1,1.4781438E2,8.8371376E1,5.1541237E1,-5.730263E-2,3.441247E1,3.7392233E-2,5.9140373E-2,5.2808452E-2,-1.0032036E-2,-2.4684269E-2,6.481039E-2,2.1424644E-2,-4.925494E-2,-5.288356E-2,7.204349E-2,-5.560431E-2,8.851061E-3,2.959134E-2,-6.1860394E-2,-5.324343E-2,5.1222467E-3,1.0633269E-2,8.422807E-2,-5.5023145E-2,1.2884967E-2,3.517851E-2,-5.1362514E-2,-5.552395E-2,2.7863733E-3,-4.8607405E-2,2.673201E-2,-4.5113306E-2,-5.7538766E-2,-3.3547485E-3,-5.6396633E-2],"split_indices":[2,1,1,0,0,0,0,1,1,2,2,2,2,1,3,3,2,3,2,3,3,0,3,3,3,0,3,3,1,0,2,0,0,0,0,0,0,0,0,0,0,0,0,0,0,0,0,0,0,0,0,0,0,0,0,0,0,0,0,0,0],"split_type":[0,0,0,0,0,0,0,0,0,0,0,0,0,0,0,0,0,0,0,0,0,0,0,0,0,0,0,0,0,0,0,0,0,0,0,0,0,0,0,0,0,0,0,0,0,0,0,0,0,0,0,0,0,0,0,0,0,0,0,0,0],"sum_hessian":[2.664265E3,1.6560427E3,1.00822217E3,1.2792053E3,3.7683743E2,2.4856207E2,7.596601E2,1.0888081E3,1.9039714E2,8.0096886E1,2.9674054E2,1.2589514E2,1.2266692E2,2.2303587E2,5.366242E2,6.791742E2,4.0963394E2,5.4980316E1,1.3541682E2,4.685227E1,3.3244614E1,6.560279E1,2.3113776E2,9.239025E1,3.350489E1,3.0621332E1,9.204559E1,9.9827415E1,1.23208466E2,5.0388754E2,3.2736702E1,7.257068E1,6.066035E2,2.4494977E2,1.6468419E2,1.629931E1,3.8681004E1,4.0752464E1,9.466437E1,2.7934868E0,4.4058784E1,2.1089806E1,1.2154807E1,4.4498814E1,2.1103981E1,2.2193369E2,9.204075E0,3.9126705E1,5.3263542E1,2.46153E1,8.889592E0,1.5747753E1,1.4873579E1,8.906339E1,2.9821978E0,5.548932E1,4.4338097E1,2.5760246E1,9.744822E1,9.747192E0,2.298951E1],"tree_param":{"num_deleted":"0","num_feature":"4","num_nodes":"61","size_leaf_vector":"1"}},{"base_weights":[5.490509E-3,-2.8264457E-1,3.6646184E-1,-4.955981E-1,1.3722818E-1,3.0825E-2,4.8815656E-1,-6.4370877E-1,-1.5812297E-1,-4.507947E-1,2.8847015E-1,-5.051411E-1,2.2499053E-1,3.4408346E-1,5.6096125E-1,-4.5788795E-1,-7.5043666E-1,1.7676185E-1,-4.4625428E-1,-6.4951295E-1,9.986515E-2,-1.2977912E-1,4.152386E-1,-7.242968E-1,2.2052483E-1,-1.6021803E-1,4.05713E-1,7.997986E-2,5.271306E-1,4.4488314E-1,5.739369E-2,-7.081156E-2,-7.440594E-3,-8.0600716E-2,-6.4897045E-2,-3.9101485E-2,3.8379353E-2,-6.939603E-2,-1.3630437E-2,-3.265393E-2,-8.632057E-2,-4.4259336E-2,5.0007124E-2,-3.8616106E-2,3.984542E-2,2.113678E-2,5.5634018E-2,-4.155396E-2,-8.1324056E-2,4.3933533E-2,-6.811645E-2,-3.8527433E-2,6.52286E-2,5.426812E-2,9.684007E-3,-3.8058233E-2,4.742047E-2,7.5776367E-3,5.4457266E-2,5.806731E-2,7.076222E-3],"categories":[],"categories_nodes":[],"categories_segments":[],"categories_sizes":[],"default_left":[0,0,0,0,0,0,0,0,0,0,0,0,0,0,0,0,0,0,0,0,0,0,0,0,0,0,0,0,0,0,0,0,0,0,0,0,0,0,0,0,0,0,0,0,0,0,0,0,0,0,0,0,0,0,0,0,0,0,0,0,0],"id":23,"left_children":[1,3,5,7,9,11,13,15,17,19,21,23,25,27,29,31,33,35,37,39,41,43,45,47,49,51,53,55,57,59,-1,-1,-1,-1,-1,-1,-1,-1,-1,-1,-1,-1,-1,-1,-1,-1,-1,-1,-1,-1,-1,-1,-1,-1,-1,-1,-1,-1,-1,-1,-1],"loss_changes":[2.8132703E2,1.3456265E2,4.9026245E1,4.979335E1,4.521595E1,3.3473103E1,9.0490265E0,1.340863E1,2.9585741E1,1.1456827E1,2.1466568E1,1.376593E1,1.6494667E1,1.4381939E1,6.2387085E-1,2.4468624E1,1.9516296E0,1.6858538E1,1.2547249E1,5.007122E0,6.4027705E0,1.2978551E1,8.804565E0,1.4730186E0,4.365903E0,1.4163564E1,6.755413E0,2.2570993E1,1.3446846E0,3.166461E0,0E0,0E0,0E0,0E0,0E0,0E0,0E0,0E0,0E0,0E0,0E0,0E0,0E0,0E0,0E0,0E0,0E0,0E0,0E0,0E0,0E0,0E0,0E0,0E0,0E0,0E0,0E0,0E0,0E0,0E0,0E0],"parents":[2147483647,0,0,1,1,2,2,3,3,4,4,5,5,6,6,7,7,8,8,9,9,10,10,11,11,12,12,13,13,14,14,15,15,16,16,17,17,18,18,19,19,20,20,21,21,22,22,23,23,24,24,25,25,26,26,27,27,28,28,29,29],"right_children":[2,4,6,8,10,12,14,16,18,20,22,24,26,28,30,32,34,36,38,40,42,44,46,48,50,52,54,56,58,60,-1,-1,-1,-1,-1,-1,-1,-1,-1,-1,-1,-1,-1,-1,-1,-1,-1,-1,-1,-1,-1,-1,-1,-1,-1,-1,-1,-1,-1,-1,-1],"split_conditions":[2.5627901E1,5.2021317E1,2.6057568E1,2.0911411E1,6.542411E0,8.194537E0,1.0695174E1,6.0369858E1,7.904499E1,2.0396616E1,8.982118E0,4.256243E1,3.177348E1,3.441247E1,2.8000772E1,3.5735123E1,1.8159685E1,1.0010707E1,3.002802E1,8.000347E1,6.297772E1,2.1222342E1,1.4358279E1,4.290332E1,1.2732454E2,2.4119413E1,1.1195098E2,4.6224598E1,2.7731543E1,1.1628461E2,5.739369E-2,-7.081156E-2,-7.440594E-3,-8.0600716E-2,-6.4897045E-2,-3.9101485E-2,3.8379353E-2,-6.939603E-2,-1.3630437E-2,-3.265393E-2,-8.632057E-2,-4.4259336E-2,5.0007124E-2,-3.8616106E-2,3.984542E-2,2.113678E-2,5.5634018E-2,-4.155396E-2,-8.1324056E-2,4.3933533E-2,-6.811645E-2,-3.8527433E-2,6.52286E-2,5.426812E-2,9.684007E-3,-3.8058233E-2,4.742047E-2,7.5776367E-3,5.4457266E-2,5.806731E-2,7.076222E-3],"split_indices":[2,1,1,0,0,0,0,3,3,2,2,2,2,2,2,1,2,2,1,3,1,0,0,3,3,0,3,1,1,3,0,0,0,0,0,0,0,0,0,0,0,0,0,0,0,0,0,0,0,0,0,0,0,0,0,0,0,0,0,0,0],"split_type":[0,0,0,0,0,0,0,0,0,0,0,0,0,0,0,0,0,0,0,0,0,0,0,0,0,0,0,0,0,0,0,0,0,0,0,0,0,0,0,0,0,0,0,0,0,0,0,0,0,0,0,0,0,0,0,0,0,0,0,0,0],"sum_hessian":[2.7028503E3,1.5031893E3,1.1996611E3,9.972287E2,5.0596066E2,3.195601E2,8.8010095E2,6.9242896E2,3.047997E2,1.0310641E2,4.0285425E2,8.455542E1,2.3500468E2,2.973674E2,5.827336E2,2.5454262E2,4.3788635E2,1.4114195E2,1.6365778E2,7.563299E1,2.7473421E1,9.369639E1,3.0915787E2,6.494385E1,1.961157E1,7.508182E1,1.5992287E2,1.2231955E2,1.7504784E2,6.213842E1,5.2059515E2,1.5352121E2,1.010214E2,2.784453E2,1.5944101E2,3.74762E1,1.0366575E2,9.027378E1,7.338399E1,3.1122597E1,4.451039E1,1.1618813E1,1.5854609E1,6.32611E1,3.043529E1,1.2747435E2,1.8168352E2,1.5792848E1,4.9151E1,1.6194468E1,3.417103E0,5.920765E1,1.5874167E1,1.1026805E2,4.9654816E1,5.6429314E1,6.5890236E1,6.7116847E0,1.6833615E2,4.51858E1,1.6952621E1],"tree_param":{"num_deleted":"0","num_feature":"4","num_nodes":"61","size_leaf_vector":"1"}},{"base_weights":[2.6505021E-2,5.317381E-1,-4.500531E-1,9.232406E-1,-2.6601803E-1,5.9023555E-2,-4.734295E-1,1.1718547E0,-1.1338067E-1,-4.8278388E-2,5.637412E-1,-2.2918598E-1,-4.9676713E-2,2.1397126E-1,1.4108834E0,-4.4274755E-2,5.254434E-1,1.4683858E-1,-3.7075084E-2,4.7519676E-2,-4.374982E-2,8.845631E-2,-2.8933162E-2,1.9588879E-1,1.2250831E-1,1.1972111E-1,-3.2027345E-2],"categories":[],"categories_nodes":[],"categories_segments":[],"categories_sizes":[],"default_left":[0,0,0,0,0,0,0,0,0,0,0,0,0,0,0,0,0,0,0,0,0,0,0,0,0,0,0],"id":24,"left_children":[1,3,5,7,9,-1,11,13,15,-1,17,19,-1,21,23,-1,25,-1,-1,-1,-1,-1,-1,-1,-1,-1,-1],"loss_changes":[3.9072296E1,2.483965E1,2.3109608E0,1.3803867E1,5.0743775E0,0E0,3.5502434E-1,9.514442E0,2.5835152E0,0E0,5.609523E0,1.5330048E0,0E0,3.5435388E0,1.0755539E0,0E0,2.802628E0,0E0,0E0,0E0,0E0,0E0,0E0,0E0,0E0,0E0,0E0],"parents":[2147483647,0,0,1,1,2,2,3,3,4,4,6,6,7,7,8,8,10,10,11,11,13,13,14,14,16,16],"right_children":[2,4,6,8,10,-1,12,14,16,-1,18,20,-1,22,24,-1,26,-1,-1,-1,-1,-1,-1,-1,-1,-1,-1],"split_conditions":[1.6270437E1,3.3251316E1,2.234123E0,1.3612689E1,1.3296921E2,5.9023555E-2,1.8691336E1,7.7034424E1,1.2796267E2,-4.8278388E-2,4.758849E0,1.9045263E1,-4.9676713E-2,7.3685765E0,1.2847696E1,-4.4274755E-2,1.4518468E1,1.4683858E-1,-3.7075084E-2,4.7519676E-2,-4.374982E-2,8.845631E-2,-2.8933162E-2,1.9588879E-1,1.2250831E-1,1.1972111E-1,-3.2027345E-2],"split_indices":[2,1,0,0,3,0,2,3,3,0,0,1,0,2,1,0,1,0,0,0,0,0,0,0,0,0,0],"split_type":[0,0,0,0,0,0,0,0,0,0,0,0,0,0,0,0,0,0,0,0,0,0,0,0,0,0,0],"sum_hessian":[1.6028467E2,7.774543E1,8.253924E1,5.2046215E1,2.5699213E1,1.2810545E0,8.125819E1,4.1873245E1,1.017297E1,2.0707708E1,4.991505E0,8.0308275E0,7.322736E1,8.740746E0,3.31325E1,6.914767E0,3.2582035E0,2.2459607E0,2.7455447E0,1.5405308E0,6.4902964E0,3.422779E0,5.3179665E0,5.9729004E0,2.7159601E1,1.584216E0,1.6739874E0],"tree_param":{"num_deleted":"0","num_feature":"4","num_nodes":"27","size_leaf_vector":"1"}},{"base_weights":[-6.719994E-3,2.1343254E-1,-3.846597E-1,3.424781E-1,-2.693539E-1,-5.6395497E-2,-4.961211E-1,4.5501927E-1,4.6995725E-2,1.03526615E-1,-4.2954218E-1,2.6782903E-1,-4.1696686E-1,-3.5862538E-1,-5.5396616E-1,1.5811838E-1,5.0540376E-1,3.6553678E-1,-2.4560456E-1,4.3223372E-1,-4.144751E-1,-8.705533E-2,-5.318306E-1,4.7213584E-1,-4.1632673E-1,-1.0280067E-1,-5.2379316E-1,-1.3894881E-1,-5.42891E-1,-5.6378067E-2,-3.925952E-1,4.690471E-2,-2.8273199E-2,5.665632E-2,3.664495E-2,6.769161E-2,-3.5208004E-4,2.4500867E-2,-4.3649174E-2,-1.1003474E-2,7.826268E-2,-5.0937593E-2,2.109773E-2,-3.7123293E-2,4.0889293E-2,-5.532611E-2,-3.925046E-3,5.796577E-3,7.665781E-2,-4.979989E-3,-5.830872E-2,-5.7189416E-2,2.6574507E-2,-5.441699E-2,3.0327223E-3,-4.7332507E-2,2.62769E-2,-4.350292E-2,-5.6664553E-2,-1.3913215E-3,-5.5337586E-2],"categories":[],"categories_nodes":[],"categories_segments":[],"categories_sizes":[],"default_left":[0,0,0,0,0,0,0,0,0,0,0,0,0,0,0,0,0,0,0,0,0,0,0,0,0,0,0,0,0,0,0,0,0,0,0,0,0,0,0,0,0,0,0,0,0,0,0,0,0,0,0,0,0,0,0,0,0,0,0,0,0],"id":25,"left_children":[1,3,5,7,9,11,13,15,17,19,21,23,25,27,29,31,33,35,37,39,41,43,45,47,49,51,53,55,57,-1,59,-1,-1,-1,-1,-1,-1,-1,-1,-1,-1,-1,-1,-1,-1,-1,-1,-1,-1,-1,-1,-1,-1,-1,-1,-1,-1,-1,-1,-1,-1],"loss_changes":[2.140598E2,1.0137759E2,3.462094E1,4.265265E1,2.0559313E1,2.8305754E1,5.422943E0,1.3820267E1,3.318405E1,1.7889746E1,8.376873E0,1.803128E1,3.7914371E0,8.511751E0,5.6370544E-1,1.8810957E1,6.5395966E0,1.9584301E1,1.7495113E1,1.22700615E1,2.5345678E0,8.113543E0,1.9306374E0,1.1994534E1,1.7968178E0,5.3933396E0,9.791622E-1,1.33037405E1,4.8210144E-2,0E0,1.9230533E0,0E0,0E0,0E0,0E0,0E0,0E0,0E0,0E0,0E0,0E0,0E0,0E0,0E0,0E0,0E0,0E0,0E0,0E0,0E0,0E0,0E0,0E0,0E0,0E0,0E0,0E0,0E0,0E0,0E0,0E0],"parents":[2147483647,0,0,1,1,2,2,3,3,4,4,5,5,6,6,7,7,8,8,9,9,10,10,11,11,12,12,13,13,14,14,15,15,16,16,17,17,18,18,19,19,20,20,21,21,22,22,23,23,24,24,25,25,26,26,27,27,28,28,30,30],"right_children":[2,4,6,8,10,12,14,16,18,20,22,24,26,28,30,32,34,36,38,40,42,44,46,48,50,52,54,56,58,-1,60,-1,-1,-1,-1,-1,-1,-1,-1,-1,-1,-1,-1,-1,-1,-1,-1,-1,-1,-1,-1,-1,-1,-1,-1,-1,-1,-1,-1,-1,-1],"split_conditions":[2.8344784E1,6.1304314E1,2.4696133E1,2.132315E1,8.413764E0,1.4241379E1,9.719133E0,3.1071629E1,3.002802E1,1.7832571E1,8.982118E0,4.3969517E1,3.2109196E1,4.493578E1,1.4160683E2,4.0444336E1,2.0760025E1,1.7342197E1,9.855347E0,7.346073E1,1.3128568E2,1.07553795E2,1.432386E2,7.1779396E1,5.771051E0,8.1607796E1,1.4781438E2,8.8371376E1,5.1541237E1,-5.6378067E-2,3.441247E1,4.690471E-2,-2.8273199E-2,5.665632E-2,3.664495E-2,6.769161E-2,-3.5208004E-4,2.4500867E-2,-4.3649174E-2,-1.1003474E-2,7.826268E-2,-5.0937593E-2,2.109773E-2,-3.7123293E-2,4.0889293E-2,-5.532611E-2,-3.925046E-3,5.796577E-3,7.665781E-2,-4.979989E-3,-5.830872E-2,-5.7189416E-2,2.6574507E-2,-5.441699E-2,3.0327223E-3,-4.7332507E-2,2.62769E-2,-4.350292E-2,-5.6664553E-2,-1.3913215E-3,-5.5337586E-2],"split_indices":[2,1,1,0,0,0,0,3,1,2,2,2,2,1,3,1,2,2,2,3,3,3,3,3,0,3,3,3,1,0,2,0,0,0,0,0,0,0,0,0,0,0,0,0,0,0,0,0,0,0,0,0,0,0,0,0,0,0,0,0,0],"split_type":[0,0,0,0,0,0,0,0,0,0,0,0,0,0,0,0,0,0,0,0,0,0,0,0,0,0,0,0,0,0,0,0,0,0,0,0,0,0,0,0,0,0,0,0,0,0,0,0,0,0,0,0,0,0,0,0,0,0,0,0,0],"sum_hessian":[2.570712E3,1.6247303E3,9.4598157E2,1.282277E3,3.424534E2,2.4016864E2,7.058129E2,9.2820795E2,3.5406897E2,1.0301425E2,2.3943913E2,1.2659345E2,1.1357519E2,2.1114009E2,4.9467285E2,1.3526562E2,7.929423E2,1.6940067E2,1.8466832E2,6.3123623E1,3.9890633E1,5.5491386E1,1.8394774E2,9.772123E1,2.8872217E1,2.9317493E1,8.425769E1,9.711558E1,1.14024506E2,4.6396124E2,3.07116E1,7.928354E1,5.598209E1,5.484638E2,2.4447856E2,9.142764E1,7.797302E1,5.1645885E1,1.3302243E2,2.5046938E1,3.8076683E1,3.4796497E1,5.0941358E0,3.5437325E1,2.0054064E1,1.7616042E2,7.787331E0,4.11024E1,5.661883E1,9.43451E0,1.9437706E1,1.265639E1,1.6661102E1,8.128649E1,2.9711998E0,5.2902817E1,4.4212765E1,2.406522E1,8.995929E1,9.477068E0,2.1234531E1],"tree_param":{"num_deleted":"0","num_feature":"4","num_nodes":"61","size_leaf_vector":"1"}},{"base_weights":[4.9981163E-3,-2.9582763E-1,3.156401E-1,-4.4922984E-1,2.1085255E-1,3.2747813E-2,4.846386E-1,-6.5112233E-1,-2.2738144E-1,-2.4086629E-1,3.9961258E-1,-1.9019718E-1,3.9640418E-1,3.389542E-1,5.664752E-1,-7.345617E-1,-4.6620625E-1,6.892741E-2,-5.31237E-1,1.5175353E-1,-5.5235726E-1,8.370409E-2,5.195414E-1,-4.8853633E-1,3.0744964E-1,8.332748E-2,5.2752465E-1,5.377556E-1,8.337564E-2,5.750187E-2,4.6200967E-1,-7.535017E-2,-6.2348414E-2,-2.962566E-3,-6.663723E-2,-4.0383182E-2,3.903682E-2,-7.207003E-2,-3.1068897E-2,-2.7464444E-2,4.8330378E-2,-7.8893766E-2,1.1799572E-2,-1.988536E-2,6.1100245E-2,5.4422833E-2,-4.055158E-3,-1.5054909E-2,-7.781418E-2,4.3435288E-3,5.485124E-2,-6.558713E-2,3.2249857E-2,3.4589354E-2,5.6573965E-2,2.5896296E-2,5.7086367E-2,-4.26176E-2,3.7257776E-2,-1.1364804E-2,5.662457E-2],"categories":[],"categories_nodes":[],"categories_segments":[],"categories_sizes":[],"default_left":[0,0,0,0,0,0,0,0,0,0,0,0,0,0,0,0,0,0,0,0,0,0,0,0,0,0,0,0,0,0,0,0,0,0,0,0,0,0,0,0,0,0,0,0,0,0,0,0,0,0,0,0,0,0,0,0,0,0,0,0,0],"id":26,"left_children":[1,3,5,7,9,11,13,15,17,19,21,23,25,27,29,31,33,35,37,39,41,43,45,47,49,51,53,55,57,-1,59,-1,-1,-1,-1,-1,-1,-1,-1,-1,-1,-1,-1,-1,-1,-1,-1,-1,-1,-1,-1,-1,-1,-1,-1,-1,-1,-1,-1,-1,-1],"loss_changes":[2.4328416E2,1.0289485E2,6.121656E1,4.533789E1,2.6362644E1,3.8996677E1,9.366425E0,7.852783E0,4.3739403E1,1.1263247E1,8.202095E0,4.4435833E1,7.459221E0,1.4733635E1,1.9119263E-1,2.9656982E-1,1.4651691E1,3.7637394E1,9.794701E0,5.9606733E0,8.211065E0,9.221865E0,2.2006416E0,1.8174503E1,7.1305456E0,9.960163E0,6.971855E-1,1.3605728E0,1.908639E1,0E0,2.691658E0,0E0,0E0,0E0,0E0,0E0,0E0,0E0,0E0,0E0,0E0,0E0,0E0,0E0,0E0,0E0,0E0,0E0,0E0,0E0,0E0,0E0,0E0,0E0,0E0,0E0,0E0,0E0,0E0,0E0,0E0],"parents":[2147483647,0,0,1,1,2,2,3,3,4,4,5,5,6,6,7,7,8,8,9,9,10,10,11,11,12,12,13,13,14,14,15,15,16,16,17,17,18,18,19,19,20,20,21,21,22,22,23,23,24,24,25,25,26,26,27,27,28,28,30,30],"right_children":[2,4,6,8,10,12,14,16,18,20,22,24,26,28,30,32,34,36,38,40,42,44,46,48,50,52,54,56,58,-1,60,-1,-1,-1,-1,-1,-1,-1,-1,-1,-1,-1,-1,-1,-1,-1,-1,-1,-1,-1,-1,-1,-1,-1,-1,-1,-1,-1,-1,-1,-1],"split_conditions":[2.3350168E1,6.0267994E1,3.1915806E1,1.6153688E1,8.413764E0,1.7667538E1,1.113806E1,4.413179E1,8.265738E1,8.318605E1,8.982118E0,3.8401047E1,2.8759775E1,9.156628E1,1.3841483E2,2.0760025E1,5.494399E1,2.7731543E1,1.3720434E1,1.1355679E1,1.7832571E1,2.022208E1,1.432386E2,7.396301E1,8.741336E0,1.5100662E1,3.1244862E1,2.5250414E1,4.6224598E1,5.750187E-2,3.9086094E1,-7.535017E-2,-6.2348414E-2,-2.962566E-3,-6.663723E-2,-4.0383182E-2,3.903682E-2,-7.207003E-2,-3.1068897E-2,-2.7464444E-2,4.8330378E-2,-7.8893766E-2,1.1799572E-2,-1.988536E-2,6.1100245E-2,5.4422833E-2,-4.055158E-3,-1.5054909E-2,-7.781418E-2,4.3435288E-3,5.485124E-2,-6.558713E-2,3.2249857E-2,3.4589354E-2,5.6573965E-2,2.5896296E-2,5.7086367E-2,-4.26176E-2,3.7257776E-2,-1.1364804E-2,5.662457E-2],"split_indices":[2,1,1,0,0,0,0,1,3,3,2,2,2,3,3,2,3,1,2,2,2,0,3,3,0,1,2,2,1,0,1,0,0,0,0,0,0,0,0,0,0,0,0,0,0,0,0,0,0,0,0,0,0,0,0,0,0,0,0,0,0],"split_type":[0,0,0,0,0,0,0,0,0,0,0,0,0,0,0,0,0,0,0,0,0,0,0,0,0,0,0,0,0,0,0,0,0,0,0,0,0,0,0,0,0,0,0,0,0,0,0,0,0,0,0,0,0,0,0,0,0,0,0,0,0],"sum_hessian":[2.6013877E3,1.3215989E3,1.2797888E3,1.0145482E3,3.0705066E2,4.79063E2,8.007259E2,5.3015094E2,4.8439725E2,9.0411705E1,2.1663896E2,2.9728497E2,1.8177802E2,2.8986102E2,5.1086487E2,3.632637E2,1.6688727E2,2.4563557E2,2.3876166E2,4.0224022E1,5.0187687E1,6.007948E1,1.5655948E2,1.8587267E2,1.1141231E2,5.414097E1,1.27637054E2,1.6241931E2,1.27441696E2,4.6807953E2,4.278534E1,3.0540494E2,5.7858746E1,5.2823143E1,1.1406413E2,9.9313644E1,1.4632193E2,1.27211754E2,1.11549904E2,1.7670322E1,2.2553698E1,3.69651E1,1.3222588E1,3.952339E1,2.0556091E1,1.4997733E2,6.582151E0,8.64731E1,9.939956E1,5.373804E1,5.7674267E1,1.280932E1,4.133165E1,2.3933844E1,1.0370321E2,1.8177128E1,1.4424219E2,4.5970905E1,8.147079E1,6.5456715E0,3.623967E1],"tree_param":{"num_deleted":"0","num_feature":"4","num_nodes":"61","size_leaf_vector":"1"}},{"base_weights":[3.5585754E-2,5.113605E-1,-4.4609597E-1,8.655254E-1,-2.572349E-1,5.6442477E-2,-4.710425E-1,1.0275362E0,-4.3217264E-2,-4.811222E-2,5.323104E-1,-2.2026177E-1,-4.9602337E-2,1.3035668E-1,1.2558279E0,1.3153395E-1,-3.6678378E-2,4.5102037E-2,-4.346462E-2,7.755874E-2,-3.2112062E-2,1.7760581E-1,1.0696125E-1],"categories":[],"categories_nodes":[],"categories_segments":[],"categories_sizes":[],"default_left":[0,0,0,0,0,0,0,0,0,0,0,0,0,0,0,0,0,0,0,0,0,0,0],"id":27,"left_children":[1,3,5,7,9,-1,11,13,-1,-1,15,17,-1,19,21,-1,-1,-1,-1,-1,-1,-1,-1],"loss_changes":[3.5975475E1,2.1710724E1,2.2333126E0,1.185339E1,4.7940645E0,0E0,3.713131E-1,9.778362E0,0E0,0E0,4.8094187E0,1.4549508E0,0E0,3.4423335E0,1.837635E0,0E0,0E0,0E0,0E0,0E0,0E0,0E0,0E0],"parents":[2147483647,0,0,1,1,2,2,3,3,4,4,6,6,7,7,10,10,11,11,13,13,14,14],"right_children":[2,4,6,8,10,-1,12,14,-1,-1,16,18,-1,20,22,-1,-1,-1,-1,-1,-1,-1,-1],"split_conditions":[1.6270437E1,3.3251316E1,2.234123E0,1.8225185E1,1.3296921E2,5.6442477E-2,1.8691336E1,7.7034424E1,-4.3217264E-2,-4.811222E-2,4.758849E0,5.3043017E0,-4.9602337E-2,4.862848E0,1.2847696E1,1.3153395E-1,-3.6678378E-2,4.5102037E-2,-4.346462E-2,7.755874E-2,-3.2112062E-2,1.7760581E-1,1.0696125E-1],"split_indices":[2,1,0,0,3,0,2,3,0,0,0,0,0,0,1,0,0,0,0,0,0,0,0],"split_type":[0,0,0,0,0,0,0,0,0,0,0,0,0,0,0,0,0,0,0,0,0,0,0],"sum_hessian":[1.5498482E2,7.793949E1,7.704532E1,5.326783E1,2.467166E1,1.3351811E0,7.571014E1,4.7540802E1,5.7270308E0,1.9525537E1,5.146122E0,7.7477965E0,6.796234E1,9.961893E0,3.7578907E1,2.5031478E0,2.6429744E0,1.6082473E0,6.1395493E0,3.8054419E0,6.156451E0,7.6551247E0,2.9923782E1],"tree_param":{"num_deleted":"0","num_feature":"4","num_nodes":"23","size_leaf_vector":"1"}},{"base_weights":[-6.7070136E-3,1.9788696E-1,-3.721254E-1,3.1549868E-1,-2.567026E-1,1.288228E-1,-4.4566712E-1,3.8720527E-1,-1.01280354E-1,1.1251566E-2,-4.6961465E-1,4.84225E-1,-2.803914E-1,-2.3355009E-1,-5.155482E-1,2.588042E-1,5.275978E-1,3.641772E-1,-2.6155916E-1,2.6899508E-1,-4.496928E-1,-5.2375066E-1,-3.326508E-2,6.757399E-1,-3.924819E-1,1.845366E-1,-4.769834E-1,3.102848E-2,-5.139217E-1,-5.400068E-1,-2.8418732E-1,5.0000366E-2,-2.4140691E-3,1.620442E-2,5.496181E-2,-1.7684137E-2,6.6002674E-2,1.8336488E-2,-4.527077E-2,-1.4370066E-2,6.778419E-2,-5.2179612E-2,6.4138374E-3,-3.2816414E-2,-5.8028277E-2,6.4205326E-2,-4.7947865E-2,1.0090518E-2,8.0789946E-2,-5.337258E-2,3.0230526E-2,-5.106587E-2,5.33395E-2,-5.256914E-2,5.0399125E-2,6.1865386E-2,-2.0450987E-2,-2.4813883E-2,-5.377363E-2,-4.201161E-2,-5.5000212E-2,2.0733507E-2,-4.638384E-2],"categories":[],"categories_nodes":[],"categories_segments":[],"categories_sizes":[],"default_left":[0,0,0,0,0,0,0,0,0,0,0,0,0,0,0,0,0,0,0,0,0,0,0,0,0,0,0,0,0,0,0,0,0,0,0,0,0,0,0,0,0,0,0,0,0,0,0,0,0,0,0,0,0,0,0,0,0,0,0,0,0,0,0],"id":28,"left_children":[1,3,5,7,9,11,13,15,17,19,21,23,25,27,29,31,33,35,37,39,41,43,45,47,49,51,53,55,57,59,61,-1,-1,-1,-1,-1,-1,-1,-1,-1,-1,-1,-1,-1,-1,-1,-1,-1,-1,-1,-1,-1,-1,-1,-1,-1,-1,-1,-1,-1,-1,-1,-1],"loss_changes":[1.853329E2,8.504819E1,3.283686E1,3.7785248E1,1.8672358E1,1.6813808E1,1.1383514E1,1.929271E1,1.3985905E1,1.7448847E1,4.2901077E0,1.0631554E1,5.0178456E0,1.44179125E1,3.1452637E0,3.856511E1,4.0476685E0,7.81731E0,1.1911604E1,1.5986652E1,1.9852381E0,1.6025238E0,6.694457E0,3.7958775E0,1.3096789E0,4.3346505E0,2.0895329E0,1.4082281E1,4.6355057E-1,3.993683E-1,5.204025E0,0E0,0E0,0E0,0E0,0E0,0E0,0E0,0E0,0E0,0E0,0E0,0E0,0E0,0E0,0E0,0E0,0E0,0E0,0E0,0E0,0E0,0E0,0E0,0E0,0E0,0E0,0E0,0E0,0E0,0E0,0E0,0E0],"parents":[2147483647,0,0,1,1,2,2,3,3,4,4,5,5,6,6,7,7,8,8,9,9,10,10,11,11,12,12,13,13,14,14,15,15,16,16,17,17,18,18,19,19,20,20,21,21,22,22,23,23,24,24,25,25,26,26,27,27,28,28,29,29,30,30],"right_children":[2,4,6,8,10,12,14,16,18,20,22,24,26,28,30,32,34,36,38,40,42,44,46,48,50,52,54,56,58,60,62,-1,-1,-1,-1,-1,-1,-1,-1,-1,-1,-1,-1,-1,-1,-1,-1,-1,-1,-1,-1,-1,-1,-1,-1,-1,-1,-1,-1,-1,-1,-1,-1],"split_conditions":[2.8344784E1,6.1304314E1,1.7002256E1,2.5310791E1,1.178854E1,1.4241379E1,7.984025E0,8.318605E1,1.93256E1,1.7832571E1,1.3740027E2,4.4686367E1,3.2109196E1,4.2080105E1,1.3841483E2,3.5735123E1,1.2847696E1,5.2674915E1,1.100762E1,8.939458E1,1.3128568E2,1.5824385E1,8.788936E0,4.172478E1,1.18607925E2,8.1607796E1,1.4781438E2,3.3913933E1,2.9646196E1,2.1364891E1,1.2594719E1,5.0000366E-2,-2.4140691E-3,1.620442E-2,5.496181E-2,-1.7684137E-2,6.6002674E-2,1.8336488E-2,-4.527077E-2,-1.4370066E-2,6.778419E-2,-5.2179612E-2,6.4138374E-3,-3.2816414E-2,-5.8028277E-2,6.4205326E-2,-4.7947865E-2,1.0090518E-2,8.0789946E-2,-5.337258E-2,3.0230526E-2,-5.106587E-2,5.33395E-2,-5.256914E-2,5.0399125E-2,6.1865386E-2,-2.0450987E-2,-2.4813883E-2,-5.377363E-2,-4.201161E-2,-5.5000212E-2,2.0733507E-2,-4.638384E-2],"split_indices":[2,1,1,0,0,0,0,3,1,2,3,2,2,1,3,1,1,3,2,3,3,0,2,3,3,3,3,2,2,1,0,0,0,0,0,0,0,0,0,0,0,0,0,0,0,0,0,0,0,0,0,0,0,0,0,0,0,0,0,0,0,0,0],"split_type":[0,0,0,0,0,0,0,0,0,0,0,0,0,0,0,0,0,0,0,0,0,0,0,0,0,0,0,0,0,0,0,0,0,0,0,0,0,0,0,0,0,0,0,0,0,0,0,0,0,0,0,0,0,0,0,0,0,0,0,0,0,0,0],"sum_hessian":[2.4769739E3,1.5882101E3,8.887639E2,1.2620084E3,3.2620166E2,1.13676414E2,7.7508746E2,1.0768141E3,1.851943E2,1.4485094E2,1.8135074E2,6.0740253E1,5.293616E1,1.9314809E2,5.819394E2,5.639117E2,5.129024E2,4.7110615E1,1.380837E2,9.317003E1,5.168091E1,1.6115645E2,2.0194288E1,5.0038643E1,1.07016115E1,1.5749911E1,3.7186253E1,9.9830376E1,9.331771E1,5.250944E2,5.684496E1,3.039981E2,2.5991357E2,2.9615889E1,4.832865E2,1.6796747E1,3.031387E1,4.150828E1,9.657542E1,4.6689507E1,4.6480526E1,4.530762E1,6.3732877E0,3.7661648E1,1.234948E2,7.8598976E0,1.233439E1,9.683458E0,4.0355183E1,9.08627E0,1.6153419E0,5.1076765E0,1.0642235E1,3.5869354E1,1.3168956E0,2.8099838E1,7.173054E1,8.612918E0,8.4704796E1,4.3719685E1,4.8137476E2,1.5174277E1,4.167068E1],"tree_param":{"num_deleted":"0","num_feature":"4","num_nodes":"63","size_leaf_vector":"1"}},{"base_weights":[4.425493E-3,-3.1094843E-1,2.7228096E-1,-4.546751E-1,1.7218693E-1,1.23604275E-2,4.6833143E-1,-6.0344714E-1,-1.790175E-1,-1.6036756E-1,4.4055393E-1,-2.2237682E-1,3.3775562E-1,2.564781E-1,5.389564E-1,-4.1440514E-1,-6.910358E-1,6.696414E-2,-5.6963354E-1,1.9565469E-1,-5.187707E-1,5.062458E-1,-5.944193E-2,-5.619299E-1,1.8297724E-1,5.6363887E-1,1.2633476E-1,-4.3312445E-2,4.7816077E-1,3.8208377E-1,5.5609494E-1,-6.146099E-2,3.0568882E-3,-7.532994E-2,-5.9320748E-2,-2.295857E-2,4.9466472E-2,-6.862713E-2,-9.630579E-3,-3.032398E-2,4.3906987E-2,-6.6139646E-2,1.861466E-2,2.7175277E-2,5.811177E-2,-6.2185835E-2,4.4972774E-2,-2.893202E-2,-7.458905E-2,4.9109932E-2,-1.0652829E-2,4.5447793E-2,5.9922513E-2,-2.1931393E-2,5.481118E-2,4.184886E-2,-3.9017014E-2,2.3974605E-2,5.4208733E-2,4.7144793E-2,-2.9112248E-2,4.6049472E-2,5.7401307E-2],"categories":[],"categories_nodes":[],"categories_segments":[],"categories_sizes":[],"default_left":[0,0,0,0,0,0,0,0,0,0,0,0,0,0,0,0,0,0,0,0,0,0,0,0,0,0,0,0,0,0,0,0,0,0,0,0,0,0,0,0,0,0,0,0,0,0,0,0,0,0,0,0,0,0,0,0,0,0,0,0,0,0,0],"id":29,"left_children":[1,3,5,7,9,11,13,15,17,19,21,23,25,27,29,31,33,35,37,39,41,43,45,47,49,51,53,55,57,59,61,-1,-1,-1,-1,-1,-1,-1,-1,-1,-1,-1,-1,-1,-1,-1,-1,-1,-1,-1,-1,-1,-1,-1,-1,-1,-1,-1,-1,-1,-1,-1,-1],"loss_changes":[2.11372E2,7.987611E1,6.8940865E1,3.622551E1,2.3650229E1,4.4588905E1,1.1401245E1,9.234314E0,3.0013779E1,1.5250867E1,4.841358E0,4.678347E1,1.1611139E1,1.2962431E1,